0.680375 -0.211234 0.566198 0.59688 0.823295 -0.604897 -0.329554 0.536459 -0.444451 0.10794 -0.0452059 0.257742 -0.270431 0.0268018 0.904459 0.83239 0.271423 0.434594 -0.716795 0.213938 -0.967399 -0.514226 -0.725537 0.608354 -0.686642 -0.198111 -0.740419 -0.782382 0.997849 -0.563486 0.0258648 0.678224 0.22528 -0.407937 0.275105 0.0485744 -0.012834 0.94555 -0.414966 0.542715 0.05349 0.539828 -0.199543 0.783059 -0.433371 -0.295083 0.615449 0.838053 -0.860489 0.898654 
0.0519907 -0.827888 -0.615572 0.326454 0.780465 -0.302214 -0.871657 -0.959954 -0.0845965 -0.873808 -0.52344 0.941268 0.804416 0.70184 -0.466669 0.0795207 -0.249586 0.520497 0.0250707 0.335448 0.0632129 -0.921439 -0.124725 0.86367 0.86162 0.441905 -0.431413 0.477069 0.279958 -0.291903 0.375723 -0.668052 -0.119791 0.76015 0.658402 -0.339326 -0.542064 0.786745 -0.29928 0.37334 0.912937 0.17728 0.314608 0.717353 -0.12088 0.84794 -0.203127 0.629534 0.368437 0.821944 
-0.0350187 -0.56835 0.900505 0.840257 -0.70468 0.762124 0.282161 -0.136093 0.239193 -0.437881 0.572004 -0.385084 -0.105933 -0.547787 -0.624934 -0.447531 0.112888 -0.166997 -0.660786 0.813608 -0.793658 -0.747849 -0.00911187 0.52095 0.969503 0.870008 0.36889 -0.233623 0.499542 -0.262673 -0.411679 -0.535477 0.168977 -0.511175 -0.69522 0.464297 -0.74905 0.586941 -0.671796 0.490143 -0.85094 0.900208 -0.894941 0.0431268 -0.647579 -0.519875 0.595596 0.465309 0.313127 0.93481 
0.278917 0.51947 -0.813039 -0.730195 0.0404201 -0.843536 -0.860187 -0.59069 -0.0771591 0.639355 0.146637 0.511162 -0.896122 -0.684386 0.999987 -0.591343 0.779911 -0.749063 0.995598 -0.891885 0.74108 -0.855342 -0.991677 0.846138 0.187784 -0.639255 -0.673737 -0.21662 0.826053 0.63939 -0.281809 0.10497 0.15886 -0.0948483 0.374775 -0.80072 0.061616 0.514588 -0.39141 0.984457 0.153942 0.755228 0.495619 0.25782 -0.929158 0.495606 0.666477 0.850753 0.746543 0.662075 
0.958868 0.487622 0.806733 0.967191 0.333761 -0.00548296 -0.672064 0.660024 0.777898 -0.846011 0.299414 -0.503912 0.258959 -0.541726 0.40124 -0.366266 -0.342446 -0.537144 -0.851678 0.266144 -0.552687 0.302264 0.0213719 0.942931 -0.439916 0.0922138 0.438537 -0.773439 -0.0570331 0.18508 0.888636 -0.0981649 -0.327298 0.695369 -0.130973 -0.993537 -0.310114 0.196963 0.666487 -0.532217 0.350952 -0.0340994 -0.0361284 -0.390089 0.424175 -0.634888 0.243646 -0.918271 -0.172033 0.391968 
0.347873 0.27528 -0.305768 -0.630755 0.218212 0.254316 0.461459 -0.343251 0.480877 -0.595574 0.841829 0.369513 0.306261 -0.485469 0.0648819 -0.824713 -0.479006 0.754768 0.37225 -0.81252 -0.777449 -0.276798 0.153381 0.186423 0.333113 -0.422444 0.551534 -0.423241 -0.340716 -0.620498 0.968726 -0.992843 0.654782 -0.337042 -0.623598 -0.127006 0.917274 0.837861 0.529743 0.398151 -0.757714 0.371572 -0.232336 0.548547 0.886103 0.832546 0.723834 -0.592904 0.587314 0.0960841 
-0.405423 0.809865 0.819286 0.747958 -0.00371215 0.152399 -0.674487 -0.452178 0.729158 -0.0152024 -0.0726757 0.697884 -0.00804521 -0.417893 -0.639158 0.368357 0.455101 -0.721884 0.206218 -0.0151566 0.676267 0.448504 -0.643585 -0.556069 -0.00294904 -0.757482 -0.723523 -0.279115 -0.350386 0.863791 0.816969 0.244191 0.673656 0.636255 -0.00785116 -0.330057 -0.211346 0.317662 0.217766 -0.482188 -0.69754 -0.85491 -0.784303 0.294415 -0.272803 -0.423461 -0.337228 -0.817703 -0.145345 0.868989 
0.167141 -0.469077 0.317493 0.523556 -0.0251463 -0.685456 0.766073 0.251331 0.0354294 -0.584313 0.115121 -0.147601 0.659878 -0.211223 -0.511346 -0.347973 0.45872 0.277308 0.969689 -0.323514 0.795121 -0.727851 -0.178424 -0.989183 0.566564 0.548772 -0.412644 -0.770664 0.73107 0.442012 -0.901675 -0.10179 0.972934 0.415818 -0.578234 -0.052212 0.730362 -0.812161 -0.800881 -0.234208 -0.396474 0.31424 0.618191 -0.736596 -0.896983 -0.893155 -0.0845688 0.561737 0.384153 -0.11488 
-0.761777 0.179273 0.15727 0.0597984 0.190091 -0.276166 -0.391429 0.777447 -0.0468307 -0.660359 0.219458 0.0514942 0.237851 0.192392 -0.532688 0.659617 -0.85982 -0.802325 0.847456 -0.660701 -0.0365333 -0.549018 0.653539 -0.418343 -0.285614 0.756555 -0.311498 0.629817 0.318292 -0.927345 -0.485062 0.556515 0.251928 0.672207 -0.383687 -0.557981 -0.603959 0.224884 -0.780535 0.34921 0.564525 0.438924 -0.599295 -0.197625 -0.368684 -0.131983 -0.538008 -0.228504 0.065692 -0.690552 
0.110795 -0.970841 -0.239571 -0.235666 -0.389184 0.474815 -0.47911 0.299318 0.104633 0.839182 0.371973 0.619571 0.395696 -0.376099 0.291778 -0.98799 0.0659197 0.687819 0.236894 0.285385 0.0370298 -0.198582 -0.275691 0.437734 0.603793 0.355625 -0.694248 -0.934215 -0.872879 0.371444 -0.624767 0.237917 0.400602 0.135662 -0.997749 -0.988582 -0.389522 -0.476859 0.310736 0.71511 -0.637678 -0.317291 0.334681 0.758019 0.30661 -0.373541 0.770028 -0.62747 -0.685722 0.00692197 
0.657915 0.351308 0.80834 -0.617777 -0.210957 0.412133 0.737848 0.0947942 0.477919 0.864969 -0.533762 0.853152 0.102886 0.86684 -0.0111862 0.105137 0.878258 0.599291 0.628277 0.188995 0.314402 0.9906 0.871703 -0.350917 0.748619 0.178313 0.275542 0.518647 0.550843 0.58982 -0.474431 0.208758 -0.0588716 -0.666091 0.590981 0.730171 0.746043 0.328829 -0.175035 0.223961 0.193798 0.291203 0.077113 -0.703316 0.158043 -0.934073 0.401821 0.0363013 0.665218 0.0300982 
-0.774704 -0.02038 0.0206981 -0.903001 0.628703 -0.230683 0.275313 -0.0957552 -0.712036 -0.173844 -0.505935 -0.186467 -0.965087 0.435193 0.147442 0.625894 0.165365 -0.106515 -0.0452772 0.99033 -0.882554 -0.851479 0.281533 0.19456 -0.554795 -0.560424 0.260486 0.847025 0.475877 -0.0742955 -0.122876 0.701173 0.905325 0.897822 0.798172 0.534027 -0.332862 0.073485 -0.561728 -0.0448975 0.899641 -0.0676628 0.768636 0.934554 -0.632469 -0.083922 0.560448 0.532895 0.809563 -0.484829 
0.523225 0.92701 -0.336308 -0.195242 0.121569 0.108896 0.244333 -0.617945 -0.0440782 -0.27979 0.30776 0.833045 -0.578617 0.213084 0.730867 -0.780445 -0.252888 -0.601995 0.29304 0.185384 0.353108 0.192681 -0.882279 0.121744 0.127235 -0.514748 -0.962178 -0.312317 -0.981853 0.847385 0.202853 0.541372 0.774394 0.866545 -0.653871 -0.104037 -0.0245586 0.590463 0.278018 0.931363 -0.689327 -0.414222 0.764409 -0.267944 0.798863 0.495276 -0.0483887 -0.454026 0.893281 -0.755348 
0.731358 0.246389 0.437333 0.849079 -0.631868 -0.435432 -0.665669 -0.594046 0.25225 -0.647522 -0.746662 -0.544896 0.893849 -0.972267 -0.678351 -0.760021 -0.0763044 0.29709 0.830441 -0.798286 0.228453 -0.858886 -0.212508 -0.00713807 -0.12683 -0.413645 -0.511863 0.824781 0.132329 -0.618582 -0.930567 -0.136313 0.627807 0.506765 -0.287234 0.99594 -0.928667 0.0470968 -0.598106 0.323583 0.399574 -0.344768 0.778687 0.293424 -0.317035 -0.899664 0.533402 0.60666 0.397426 0.363843 
0.808374 -0.374121 0.504957 -0.404134 0.618741 -0.621873 0.182221 -0.893121 -0.797092 -0.68545 -0.511703 -0.727659 0.178237 -0.883895 0.779106 0.891003 -0.887956 0.850439 -0.0619 -0.486062 0.174022 -0.662326 0.16917 -0.0472907 0.631098 0.852135 0.0530451 0.1645 0.458795 -0.549529 -0.471656 0.26717 0.0763506 -0.966699 0.863036 -0.304908 -0.588572 0.0452573 -0.198029 -0.385663 0.359808 0.290268 -0.113322 -0.461955 0.406372 -0.334216 -0.570952 0.518417 -0.483777 0.367148 
-0.967645 0.690246 0.704822 0.201525 -0.357045 0.33592 0.0536604 0.696 -0.499579 -0.487544 -0.853529 0.0287644 0.779625 0.222822 0.0620655 0.642662 0.917914 0.473494 -0.312081 -0.280116 -0.912169 -0.952274 -0.989848 -0.0254917 -0.414229 0.416525 0.640292 0.0148191 -0.0650583 -0.843484 -0.618033 -0.0327033 0.846762 -0.913211 -0.831178 -0.510283 0.42271 0.222482 -0.814283 0.92313 0.734938 -0.667812 -0.0481053 0.514564 0.55501 -0.98604 0.157225 0.472924 0.487454 0.845144 
-0.807192 0.575285 0.89287 -0.797039 -0.450207 -0.521358 0.619486 -0.809915 0.493461 -0.445573 -0.653399 0.875428 0.521724 -0.806637 0.962217 0.690546 -0.316921 0.384927 -0.0869716 -0.131204 0.308057 -0.352034 0.200984 -0.740048 -0.83747 -0.244006 -0.726088 0.319755 -0.771082 0.761366 0.164899 -0.578274 0.336651 0.0577697 -0.375313 0.886444 0.536411 -0.755828 -0.92347 0.0298719 -0.2014 -0.576869 -0.0947003 -0.679676 -0.383506 -0.132483 -0.98913 0.299573 -0.747556 -0.0761019 
-0.831631 0.560501 0.571865 0.369354 0.820453 0.734395 -0.874652 -0.905635 0.0541499 -0.645734 0.855732 -0.780951 -0.224008 0.192383 0.276819 0.400679 0.0788268 -0.18677 0.644852 0.155357 0.843102 -0.556548 0.578487 -0.251598 -0.236225 -0.805019 0.615919 -0.225355 0.494554 0.868362 0.698543 0.662924 0.428863 0.270408 0.0322771 0.249316 0.00480253 0.157625 0.343682 -0.941048 0.511891 0.199413 -0.721998 -0.712117 -0.608204 0.55482 0.688562 0.470623 -0.631949 0.333414 
-0.374021 -0.788847 0.776866 -0.795533 -0.0404457 -0.459359 -0.600552 -0.424527 0.315286 0.894002 -0.556165 0.0138293 0.556925 0.872698 -0.715763 -0.410797 0.122015 0.28904 0.746828 -0.534304 0.347992 0.258719 0.665109 0.625994 0.546602 -0.943095 0.180814 0.235164 0.527528 0.548865 -0.431421 -0.846493 0.760017 -0.654556 -0.642027 -0.280428 -0.113915 -0.242579 0.295044 -0.798629 -0.348577 0.73888 0.215201 -0.791652 0.611578 0.499438 -0.202449 -0.266407 -0.211522 -0.455621 
0.199289 -0.86353 0.803097 -0.135602 0.762463 0.349699 -0.0786967 -0.0567224 -0.415137 -0.551169 -0.507858 0.153442 -0.397662 -0.74784 0.498886 -0.039689 -0.0282685 -0.615028 0.717732 -0.733224 -0.413657 -0.630845 -0.994344 0.801544 -0.422497 0.617234 0.300981 0.375054 -0.649174 -0.910541 0.919433 0.550115 -0.774071 0.72253 -0.585487 0.988392 0.0722291 0.335817 -0.0683305 0.657093 0.784648 0.423812 -0.189465 -0.613015 0.675972 -0.690579 0.347296 -0.352297 -0.305607 0.0650283 
-0.0855207 0.280736 0.434183 -0.0798651 0.0822792 -0.988314 -0.462632 -0.616739 0.386741 -0.111805 -0.52728 0.306173 -0.56169 -0.301352 0.0287034 -0.147177 -0.31296 -0.899067 -0.81136 0.61871 0.758025 0.973287 0.0425216 -0.43144 -0.639727 -0.281507 -0.122019 0.707569 0.366197 0.572373 -0.227403 -0.719324 -0.146891 -0.79322 0.200811 0.935388 -0.781533 0.738179 -0.681351 0.605207 -0.373626 -0.208632 -0.0886192 0.0646838 0.490017 0.940084 0.917507 -0.822943 -0.958983 -0.893853 
0.795766 0.799042 -0.920566 -0.161712 -0.632398 -0.560293 0.556781 0.245583 -0.852724 -0.0770222 -0.182044 -0.080127 0.203654 0.671065 0.126653 -0.595535 0.606453 0.34512 -0.857356 0.925102 -0.0496723 -0.230982 -0.283529 0.861709 0.833702 -0.793513 0.801793 0.751209 -0.616456 0.842809 0.857355 -0.82069 0.641851 0.936789 0.0175978 -0.990547 -0.623504 -0.425621 0.255036 -0.476228 0.497357 -0.927008 0.443645 -0.298989 0.744057 -0.429702 0.105475 0.35051 0.915419 0.248119 
0.275612 -0.134254 -0.982863 0.992083 -0.272545 0.850839 -0.80143 -0.470752 0.602048 -0.417886 -0.627943 0.459403 -0.238576 -0.986092 0.396193 0.779022 -0.976639 0.772689 -0.646599 0.278397 -0.703539 0.850757 0.351389 0.740105 -0.448232 0.0954457 -0.689596 0.657243 -0.554044 -0.774178 -0.0946377 0.721568 0.0915689 -0.0775005 0.713652 0.819024 -0.226661 0.912222 -0.651729 -0.624614 -0.505664 -0.279671 0.834789 0.25576 -0.265763 0.230982 0.0347815 -0.242402 0.00367067 0.388182 
-0.964005 0.300131 0.23894 0.387384 0.0402365 0.790707 -0.51717 0.35064 0.447951 -0.0712142 0.576463 -0.646687 -0.349646 -0.331968 0.275812 -0.635994 -0.512945 -0.950849 -0.723773 -0.164673 -0.575463 -0.229437 0.555655 -0.740673 -0.973677 -0.710108 0.490309 0.0611044 0.0474907 -0.506021 -0.550713 0.083486 0.794111 0.688226 -0.52913 -0.165653 0.478933 -0.0463 -0.815013 -0.073116 0.882486 0.76145 0.280197 -0.46716 -0.570518 -0.443991 -0.103154 -0.0834629 -0.39484 0.173073 
0.751864 0.0296976 0.943636 0.307519 0.289024 0.969959 0.597412 -0.220667 0.0310637 -0.355098 0.273313 0.48035 0.728389 0.0674233 0.168576 -0.800741 0.901771 -0.35249 0.152959 -0.913242 0.574394 0.0354445 0.848208 -0.145409 0.568284 -0.72231 0.4106 -0.53487 0.194227 -0.98424 0.638203 -0.053909 0.0454578 0.58184 -0.74639 -0.665518 0.551799 0.851022 0.113815 -0.417137 -0.504075 -0.612872 -0.936787 -0.775687 0.454551 0.231789 -0.576428 0.356322 0.879299 0.576531 
0.44308 0.453692 -0.388025 0.291288 -0.691717 -0.819741 0.568978 0.718883 -0.35461 -0.236795 0.734643 -0.716407 0.709296 -0.219899 0.865432 0.962907 0.114583 0.417231 0.813929 -0.771602 -0.999906 -0.690147 -0.384474 -0.936694 -0.465834 -0.929922 0.295095 -0.0422618 0.4264 0.174394 -0.465731 -0.13052 -0.371914 0.146244 -0.839232 -0.0636308 0.326503 0.729746 -0.344748 0.971893 -0.507049 -0.610105 -0.744515 -0.797753 0.169996 -0.879082 -0.834846 -0.715421 0.538149 0.979083 
-0.487023 0.538243 -0.711064 0.128503 0.601549 -0.176898 0.198581 -0.103355 0.780841 -0.375019 -0.928961 -0.684891 0.494461 -0.300875 0.461353 0.655229 0.635494 -0.212144 0.384975 -0.709254 -0.240251 0.877927 -0.319359 0.0152343 -0.919826 0.850637 0.136152 -0.754672 -0.864784 -0.325699 -0.775589 -0.351807 -0.787456 -0.486653 0.776696 0.814093 0.336449 -0.0247224 -0.289263 0.11729 0.600259 -0.218224 0.432399 0.0947199 0.480901 -0.106248 -0.250051 0.116395 0.681608 -0.865075 
0.407141 -0.558643 -0.987149 -0.912217 0.456591 -0.906975 0.93842 -0.407257 -0.661647 -0.926365 0.267044 -0.437236 -0.278172 0.479588 0.0761107 -0.501476 0.293681 -0.58744 0.473802 -0.995582 0.529849 0.0740604 -0.213805 -0.0377517 -0.83122 -0.732904 0.856 -0.0812705 0.383491 0.537609 0.053654 -0.209368 0.978966 0.0665052 -0.121585 0.435557 0.159531 -0.183166 -0.9717 0.497884 -0.109531 0.295345 -0.939352 0.612297 -0.225067 0.136759 -0.889179 -0.931386 0.549319 0.584623 
-0.926968 0.0791679 -0.341317 -0.140773 -0.958584 -0.172536 0.126322 0.897416 0.746193 -0.490187 0.435025 -0.200153 0.300445 0.413991 0.866352 -0.821141 -0.150453 0.0258828 -0.00430643 -0.122152 -0.476233 0.886163 -0.826808 -0.415585 0.49846 -0.0518749 0.721174 0.609281 0.0167388 0.270492 0.193904 0.0897709 -0.65034 0.852588 0.948997 -0.608924 -0.319949 0.0753196 -0.711507 -0.573756 0.585132 0.723517 0.226092 -0.114423 0.137508 0.0924438 0.0644367 0.987055 -0.881673 -0.93987 
