-1.55013e+07 1.40608e+07 1.95722e+06 3.43536e+07 9.73866e+06 -1.19153e+07 -2.91346e+07 1.1244e+06 -1.01489e+07 3.25481e+06 -2.64237e+07 -4.43296e+07 -2.77249e+07 -2.75048e+07 -2.33085e+07 -1.73674e+07 1.10723e+07 -2.52494e+06 1.96925e+07 6.4668e+07 2.50932e+07 -4.74498e+07 -1.68636e+07 6.59018e+06 3.33812e+07 -2.27118e+07 -1.40235e+06 1.52086e+07 -8.09251e+06 
4.03381e+07 -3.66361e+07 -4.71615e+06 -8.89381e+07 -2.56324e+07 3.15474e+07 7.61121e+07 -3.36431e+06 2.59633e+07 -8.7135e+06 6.7737e+07 1.14531e+08 7.16073e+07 7.15206e+07 5.94849e+07 4.50798e+07 -2.86851e+07 6.536e+06 -4.97162e+07 -1.66769e+08 -6.41854e+07 1.22634e+08 4.34773e+07 -1.71379e+07 -8.60524e+07 5.85123e+07 3.46357e+06 -3.91813e+07 2.05256e+07 
6.57491e+06 -6.09977e+06 -865936 -1.48884e+07 -4.25516e+06 5.12701e+06 1.29049e+07 -507571 4.30748e+06 -1.45418e+06 1.11473e+07 1.93715e+07 1.21506e+07 1.20442e+07 9.744e+06 7.56244e+06 -4.65481e+06 952711 -8.1139e+06 -2.77373e+07 -1.05969e+07 2.05026e+07 7.2464e+06 -2.91955e+06 -1.43164e+07 9.6116e+06 504096 -6.54449e+06 3.25935e+06 
-1.57201e+07 1.43547e+07 2.1331e+06 3.52582e+07 9.95388e+06 -1.2006e+07 -3.00429e+07 1.08371e+06 -1.04188e+07 3.31914e+06 -2.70272e+07 -4.5659e+07 -2.86173e+07 -2.82541e+07 -2.38148e+07 -1.78045e+07 1.1235e+07 -2.42463e+06 2.01526e+07 6.62868e+07 2.5706e+07 -4.87041e+07 -1.72893e+07 6.82351e+06 3.4202e+07 -2.32e+07 -1.37787e+06 1.56263e+07 -8.17495e+06 
1.23071e+07 -1.13209e+07 -1.71444e+06 -2.78262e+07 -7.83368e+06 9.40338e+06 2.38051e+07 -825296 8.18869e+06 -2.61964e+06 2.11933e+07 3.61613e+07 2.26799e+07 2.23512e+07 1.86458e+07 1.40718e+07 -8.77719e+06 1.84084e+06 -1.57473e+07 -5.21851e+07 -2.01776e+07 3.84127e+07 1.36235e+07 -5.41009e+06 -2.69351e+07 1.81831e+07 1.04043e+06 -1.23149e+07 6.33883e+06 
3.18943e+07 -2.9283e+07 -4.13965e+06 -7.15571e+07 -2.04269e+07 2.47219e+07 6.15275e+07 -2.43683e+06 2.08883e+07 -6.91508e+06 5.42049e+07 9.2722e+07 5.81155e+07 5.76284e+07 4.75488e+07 3.62503e+07 -2.26762e+07 4.83013e+06 -3.98381e+07 -1.33904e+08 -5.14945e+07 9.86681e+07 3.49421e+07 -1.39222e+07 -6.90941e+07 4.66985e+07 2.61875e+06 -3.15576e+07 1.61531e+07 
3.92352e+06 -3.51333e+06 -381952 -8.41536e+06 -2.43151e+06 3.09787e+06 7.08657e+06 -339264 2.47534e+06 -831581 6.49429e+06 1.07459e+07 6.67303e+06 6.74271e+06 5.73319e+06 4.27112e+06 -2.79177e+06 724744 -4.79536e+06 -1.58645e+07 -6.13492e+06 1.16165e+07 4.13351e+06 -1.58748e+06 -8.1927e+06 5.61435e+06 379930 -3.7075e+06 2.04423e+06 
8.56101e+06 -7.75178e+06 -1.08149e+06 -1.89395e+07 -5.33849e+06 6.55079e+06 1.59846e+07 -593611 5.62187e+06 -1.7796e+06 1.46352e+07 2.44344e+07 1.52639e+07 1.51364e+07 1.2941e+07 9.57239e+06 -6.12584e+06 1.42359e+06 -1.09706e+07 -3.57242e+07 -1.39068e+07 2.61777e+07 9.31673e+06 -3.62131e+06 -1.84448e+07 1.25574e+07 804159 -8.39658e+06 4.5182e+06 
1.88359e+07 -1.72162e+07 -2.34417e+06 -4.19312e+07 -1.19479e+07 1.46128e+07 3.58394e+07 -1.43072e+06 1.22757e+07 -4.04313e+06 3.19144e+07 5.4229e+07 3.39204e+07 3.37182e+07 2.80569e+07 2.12551e+07 -1.33991e+07 2.99245e+06 -2.35383e+07 -7.86161e+07 -3.03028e+07 5.78402e+07 2.05162e+07 -8.09752e+06 -4.05853e+07 2.74818e+07 1.61931e+06 -1.84963e+07 9.63396e+06 
-9.7209e+06 8.63239e+06 1.1599e+06 2.1089e+07 5.94286e+06 -7.3934e+06 -1.75229e+07 678663 -6.33541e+06 1.94553e+06 -1.66031e+07 -2.69945e+07 -1.68335e+07 -1.67284e+07 -1.47583e+07 -1.06238e+07 6.99304e+06 -1.74806e+06 1.26064e+07 4.00584e+07 1.57491e+07 -2.91969e+07 -1.04299e+07 3.95548e+06 2.06847e+07 -1.42396e+07 -993180 9.38773e+06 -5.28704e+06 
1.42572e+07 -1.3279e+07 -1.92105e+06 -3.24585e+07 -9.30009e+06 1.11281e+07 2.82785e+07 -1.11661e+06 9.36653e+06 -3.18895e+06 2.4199e+07 4.22847e+07 2.65535e+07 2.62979e+07 2.11125e+07 1.64833e+07 -1.00868e+07 1.9875e+06 -1.75469e+07 -6.03744e+07 -2.30099e+07 4.46852e+07 1.57717e+07 -6.40677e+06 -3.11468e+07 2.08789e+07 1.05312e+06 -1.42616e+07 7.00074e+06 
-1.78842e+07 1.6278e+07 2.14401e+06 3.95621e+07 1.13353e+07 -1.39306e+07 -3.3796e+07 1.42382e+06 -1.15769e+07 3.84352e+06 -3.01578e+07 -5.10296e+07 -3.19015e+07 -3.1801e+07 -2.65098e+07 -2.00507e+07 1.27231e+07 -2.89279e+06 2.22085e+07 7.42144e+07 2.86017e+07 -5.45694e+07 -1.93561e+07 7.62228e+06 3.83043e+07 -2.60081e+07 -1.55085e+06 1.74444e+07 -9.14539e+06 
-1.16582e+07 1.04034e+07 1.10684e+06 2.49817e+07 7.36839e+06 -9.29185e+06 -2.13185e+07 1.15662e+06 -7.25143e+06 2.52851e+06 -1.91143e+07 -3.18173e+07 -1.98311e+07 -2.00713e+07 -1.6776e+07 -1.26799e+07 8.28188e+06 -2.05194e+06 1.39058e+07 4.69142e+07 1.80223e+07 -3.44157e+07 -1.22081e+07 4.74942e+06 2.42012e+07 -1.66208e+07 -1.03208e+06 1.0966e+07 -5.90458e+06 
2.73798e+07 -2.50336e+07 -3.22239e+06 -6.07181e+07 -1.75547e+07 2.15299e+07 5.23104e+07 -2.33728e+06 1.76038e+07 -6.01139e+06 4.58511e+07 7.8372e+07 4.90366e+07 4.89894e+07 4.01484e+07 3.08249e+07 -1.94126e+07 4.30136e+06 -3.33854e+07 -1.13478e+08 -4.3453e+07 8.36384e+07 2.96002e+07 -1.1775e+07 -5.85542e+07 3.96561e+07 2.23533e+06 -2.6684e+07 1.37035e+07 
866771 -815327 -33583.5 -1.86578e+06 -622092 793640 1.7616e+06 -159182 471437 -242130 1.24832e+06 2.38103e+06 1.48952e+06 1.57836e+06 1.03147e+06 973396 -584466 119800 -739084 -3.32976e+06 -1.15603e+06 2.52251e+06 868098 -380241 -1.71335e+06 1.13943e+06 24733.9 -777871 315397 
-8.71431e+06 7.91165e+06 817453 1.8899e+07 5.61371e+06 -7.05532e+06 -1.63798e+07 906297 -5.39327e+06 1.96958e+06 -1.41523e+07 -2.42083e+07 -1.50966e+07 -1.53178e+07 -1.23354e+07 -9.63911e+06 6.14105e+06 -1.4545e+06 1.00821e+07 3.52041e+07 1.33439e+07 -2.59743e+07 -9.17573e+06 3.64794e+06 1.81631e+07 -1.23447e+07 -694581 8.24156e+06 -4.23977e+06 
1.26386e+07 -1.16393e+07 -1.88773e+06 -2.87882e+07 -8.01151e+06 9.51993e+06 2.45256e+07 -741804 8.54624e+06 -2.6454e+06 2.20567e+07 3.74892e+07 2.35388e+07 2.30602e+07 1.94528e+07 1.45182e+07 -9.04482e+06 1.8549e+06 -1.65574e+07 -5.41157e+07 -2.10354e+07 3.97936e+07 1.41274e+07 -5.60109e+06 -2.79279e+07 1.88576e+07 1.09608e+06 -1.27922e+07 6.61916e+06 
