-55619.4 -23887.8 -37640 -49545.6 -49443.1 -68867 -66503.2 -65512.1 -74987.2 -66117.5 -78967.9 -78407.6 -76513.2 -94334.9 -93736 -105253 -103967 -106562 -112931 -98129.9 -113607 -112941 -114360 -94023 -38627 -77150.2 -90778.6 -79544.4 -76939.2 -58183.8 -72527.5 -64233.2 -52867.3 -59421.6 -49591.2 -56673.2 -50697.5 -38391.2 -33937.9 -17446.9 -28881.1 -27915.3 -27742.4 -33468.1 -20738.8 -28621.9 -19762.7 -6903.81 -15164.9 -4985.79 
29898.8 10907.6 19438.6 27794.4 27980.6 40877 39624.1 39493.9 46551 42011.4 52089.5 53365.3 54210.2 67330.7 67752.7 76255.4 76277.6 79337.9 85290.5 76940.7 86895.5 84961.4 82258 63972 23592.2 45012.9 53101.6 46191.3 44569.6 32471.5 40903.3 34300.3 26470.3 30451 23994.7 28723.8 24695.4 17412.5 15411.9 5253.32 12971.1 12394.5 13143.3 17994.4 10387.2 15775.8 9921.75 2045.85 7118.84 -149.218 
-9070.05 -5176.07 -6688.65 -7174.41 -7065.44 -8526.93 -8254.97 -7876.68 -8026.87 -6496.28 -6177.21 -4837.93 -3097.01 -3284.05 -2461.03 -2410.81 -1515.92 -468.234 738.218 3173 2093.06 1203.95 -1575.52 -3839.12 -2858.74 -8971.65 -10752.3 -9575.71 -9399.22 -7912.01 -9926.5 -10358.3 -9871.45 -10727.8 -10173.6 -10834.8 -10646.2 -9253.65 -8381.76 -6749.35 -7470.33 -7458.38 -6836.95 -6458.88 -4942.37 -5282.36 -4524.37 -3014.5 -3936.65 -3739.93 
62058.7 21568.3 39970.7 58919.9 59329.7 87839 85057.1 84981.5 101086 91721.6 115264 119301 122694 152932 154669 174521 175339 183324 198257 181112 203380 198320 189842 145620 52954.4 97252.6 114515 99496.8 95692.5 68767.1 86371.7 70626.6 52930.5 61364.3 46787.1 57055.5 47737.1 31932.4 27871.9 5633.54 22897 21459.7 23747 35349 19015.2 31249.8 18434.3 1579.2 12505.8 -4318.39 
27526.8 11365.7 18627.4 25368.7 25420.6 36026.8 34862.7 34529 40001 35716.3 43351.4 43725.7 43686.4 54018.3 53952.5 60541 60076.7 61886 65942.6 58416.8 66647.5 65631.1 64786.9 51486.8 19627 38886.3 46118.5 40253.7 38683 28450.6 35669.9 30654.6 24391.7 27831.8 22570.9 26477.7 23141 16805.1 14777.4 6135.53 12445.4 11893.8 12283.9 16064.2 9564.91 13884.2 9028.68 2317.33 6640.21 712.401 
-52734.4 -23387 -36041 -46450.8 -46312.7 -63771.6 -61745.1 -60787.5 -69024 -60674.9 -71373.4 -70028.2 -67331.5 -82493.3 -81356.3 -90989.4 -89258.7 -90665.4 -95113.9 -80857.1 -94420.6 -94177.7 -96936.4 -81022.1 -33486 -70071 -82799.8 -72567.2 -70268.4 -53457.2 -66957.9 -60302.9 -50439.9 -56606.3 -48056.7 -54614.3 -49544.3 -38368.5 -34179.1 -19274.2 -29454.5 -28685 -28207.6 -32840.5 -21089.3 -27938.6 -19907.3 -8026.18 -15619 -6947.35 
-29541.8 -6777.41 -18095.8 -31816.9 -32563.4 -51737.7 -50282.5 -51024.4 -63086.5 -59070 -77624.5 -83304.2 -89697.2 -112630 -115124 -129937 -131746 -139155 -152038 -143082 -157475 -151514 -139172 -100319 -31065.4 -53332 -63747.6 -54695.5 -51785.1 -33884.3 -43322.2 -30599.2 -18273.2 -23293.9 -13720 -20680.3 -14076.7 -4945.44 -3841.24 9714.84 -2153.7 -1127.15 -4518.07 -14821.8 -5616.23 -14028.8 -5364.63 4712.11 -1863.73 10897.7 
14964.2 7519.49 10740.8 13061.8 12969.2 17094 16522.3 16103.8 17745.3 15309.6 17220.9 16287.8 14984.8 18109.7 17440.4 19287.3 18416.8 18063.9 18264.8 14252.9 17430.2 17851.6 19742.9 17613.6 7724.58 17871 21387.5 18821.7 18114.9 13955.5 17449.3 16317.7 14188.4 15820.7 13903.2 15512.2 14360.5 11460.9 10175.9 6450.5 8810.09 8601.43 8292.09 9182.76 6203.12 7687.03 5727.22 2688.98 4614.82 2669.53 
-18348.1 -6210.82 -11641.9 -17281.5 -17406.7 -25861.6 -24898.4 -24780.8 -29521.7 -26657 -33751.3 -35052.2 -36109.4 -45235.4 -45913.9 -51969.8 -52357.7 -54971.4 -59715.6 -54845.5 -61749.8 -60442.4 -58024.1 -44836.2 -17035.7 -30077.8 -35092.7 -30577 -29491.4 -21487.4 -26689.1 -21851.4 -16438.1 -18861 -14357.3 -17272.5 -14381.9 -9554.94 -8247.86 -1525.57 -6638.01 -6171.58 -6769.9 -10184.9 -5314.52 -9031.27 -5257.08 -257.705 -3507.31 1563.08 
5203.35 1666.14 3409.18 5305.7 5431.66 8201.45 7943.04 7956.17 9542.15 8775.81 11164.8 11725.2 12367 15463.2 15637.4 17525.8 17571.3 18322.7 19752.4 18166 20221.7 19592.2 18391.4 13577.9 4259.78 8160.34 9875.75 8511.78 8072.24 5475.26 7011.66 5403.9 3711.91 4519.52 3211.89 4252.19 3355.63 1944.34 1684.05 -330.75 1335.86 1205.6 1592.59 2981.91 1590.57 2716.77 1413.57 -170.102 840.51 -915.706 
-66022.7 -25885.5 -43514.9 -60293.2 -60363.8 -86491.8 -83300.2 -82380.8 -96063.7 -85553.9 -105254 -106937 -107314 -133550 -134320 -151628 -151470 -157440 -169351 -152029 -173361 -171031 -168294 -134081 -53484.5 -99486.5 -116373 -101784 -98293.7 -73174.1 -90784.5 -77554.8 -61421.2 -69512.9 -55760.3 -64917.2 -56275.4 -40385.8 -35229.7 -13596.1 -29218.8 -27769.5 -28545 -37694 -21555.1 -32703.8 -20953.1 -4607.04 -15192.8 -380.987 
-46916.6 -10796.1 -27988.5 -48304.7 -49182.3 -78018.9 -75820.5 -76902 -94980.5 -88498.7 -116040 -123999 -132340 -166100 -169910 -192283 -195274 -206683 -226192 -212476 -234540 -226080 -209014 -152851 -50202.2 -85212.2 -100425 -86437.6 -82697.4 -56062.8 -71190.6 -52480 -33797.3 -41394 -26580.3 -36903.9 -27119.7 -13011.1 -10959.3 9901.2 -7925.01 -6496.42 -10819.6 -25037.7 -10394.6 -23270.7 -10452.9 4990.36 -5103.52 13315 
-27644.3 -6109.1 -16463.7 -28938.8 -29461.9 -47008.2 -45715 -46461 -57605.7 -53851.2 -70883 -75985.6 -81418.1 -102215 -104664 -118485 -120446 -127613 -139836 -131753 -145154 -139764 -128745 -93655.9 -30451.3 -51044.7 -60210.3 -51785.5 -49415.1 -33141.6 -42075 -30435.8 -19002.6 -23542 -14496.9 -20748.7 -14699.6 -6208.43 -5062.03 7555.19 -3337.23 -2411.12 -5208.34 -14090.1 -5304.98 -13198 -5435.16 3810.76 -2262.55 9126.75 
-41748.4 -13170.3 -26434.2 -40702.3 -41163.1 -62240.7 -60444.6 -60745.5 -73109.8 -67037.7 -85282.3 -89180.6 -92933.9 -115971 -117623 -132680 -133681 -140192 -152023 -140088 -156171 -151450 -142976 -107483 -37037.7 -67385.1 -79681.6 -68943.2 -66135.5 -46438.6 -58793.7 -46602 -33457.3 -39520.8 -28913.3 -36599.7 -29742.1 -18667.5 -16301.5 -413.035 -13247.5 -12239.1 -14505.6 -23762.7 -12230.2 -21296.7 -11813.2 254.261 -7571.81 5155.02 
-60888.9 -24052.3 -40077 -55122.4 -55133.1 -78721.2 -75735.6 -74779.2 -86980.4 -77200.6 -94736.5 -95977.1 -95869.2 -119331 -119971 -135532 -135336 -140623 -151209 -135377 -154826 -153068 -151354 -121440 -49306.9 -91611.8 -106901 -93580.1 -90519.2 -67832.3 -84014.8 -72254.2 -57683.5 -65043.3 -52523.8 -60750.9 -52963.3 -38408.9 -33539.8 -13807.3 -27896.6 -26605.1 -27074.6 -35022.4 -20229.4 -30318.2 -19722.8 -4815.73 -14458.2 -1242.57 
-28780.9 -9595.43 -18402.7 -27634.2 -27881.8 -41662.4 -40417.2 -40500 -48421.6 -44155.2 -55759.3 -57958.1 -59944.4 -74724.7 -75647.9 -85324.8 -85815.7 -89816.4 -97206.6 -89092 -99691.7 -96922.4 -92166.2 -69996.2 -24704.5 -45437.3 -53644.9 -46501.7 -44682.9 -31756.5 -40103 -32374.2 -23836.5 -27886.7 -20922.6 -25947 -21490 -14062.3 -12314.3 -1751.68 -10122.8 -9466.67 -10752.9 -16549.2 -8810.74 -14715.5 -8506.15 -464.184 -5669.63 2514.98 
39555.2 16975.8 26765.9 35291.8 35228.8 49076.6 47304.3 46535.3 53267.3 46894.3 56133.4 55819.1 54562.7 67410 67077.1 75395.1 74542 76509.7 81221.8 70797.1 81988.6 81598.3 82579 67891.6 28098.3 55438.1 65135 57109.6 55221 41793.3 51945 45905.9 37724.1 42355.7 35261.1 40249.8 35901.7 27054.3 23822.5 12005.9 20168 19446.3 19334.9 23491.7 14444.6 20108 13789.2 4637.39 10520 3161.6 
-25555.5 -12146.8 -17598.6 -21404 -21189.1 -28171.8 -27178.3 -26476 -29291.8 -25092.1 -28374.6 -26760.5 -24183.8 -29317.3 -28394.9 -31715.8 -30565.9 -30396.9 -31145.7 -24516.5 -30201 -31092.5 -34677 -31677.5 -15189.4 -32595.2 -38117.1 -33629.2 -32849.5 -26056.7 -32347.6 -30458.4 -26654.6 -29357.7 -25839.8 -28432.1 -26520.4 -21482.9 -19198.9 -12712.1 -16681.3 -16398.8 -15519.8 -16461 -11113.6 -13786.2 -10581.7 -5355.56 -8677.86 -5725.56 
48785.1 18906.2 31818.6 44150.8 44143.5 63307.9 60714.3 59865.4 69837.7 61889.2 76504.7 77842.9 78047.2 97509.4 98384.9 111457 111637 116485 125835 113470 129710 128379 126677 101629 42017.7 75753.6 87912.8 77048.7 74590.9 56093.9 69055.9 59086.6 46966.8 52781.8 42305.1 48787.9 42225.5 30264.8 26225.5 10048 21532.5 20400.4 20772.7 27310.8 15309 23694 15154 3141.48 10940.9 -13.1933 
127999 46167.6 82974.3 120111 120777 177108 171024 170211 201297 181509 227013 233915 239122 298226 301322 340170 341340 356516 385243 350628 395524 387165 373526 289759 108819 199470 234192 203974 196434 142903 178494 147898 112813 129619 100410 120416 101778 69541.5 60537.4 15714.3 49693.8 46714.8 50409.7 72542.7 39614 63813.2 38474.7 4625.54 26562.3 -6492.06 
55522.2 20890.4 36187.5 51204.6 51332.2 74376.8 71612.8 70962.6 83328 74527.7 92596.4 94789.2 95983.2 119744 120857 136620 136915 142851 154248 139672 158521 155941 152069 119844 47046.7 85874.8 100330 87638.8 84582.2 62498.7 77555.2 65345 50942.1 57903.6 45692 53728.6 46003.2 32268.3 28032.2 9182.79 23049.1 21769 22797.8 31294.5 17360.3 27324.2 16995.4 2853.72 12021.3 -1324.22 
-82280.3 -27904.9 -52700.3 -78583.9 -79234.3 -117927 -114056 -113965 -135960 -123500 -155975 -162018 -167316 -208923 -211636 -238952 -240390 -251788 -272805 -250154 -280612 -273587 -261193 -199722 -72580 -131476 -154635 -134357 -129186 -92661.9 -116167 -94292.3 -70018.4 -81274.4 -61337.8 -75134.5 -62290.8 -40908.7 -35530.5 -5427.58 -28870.8 -26861 -30150.1 -46266.9 -24363.1 -41077.1 -23693.1 -1003.82 -15731.4 7415.18 
-30365.8 -10491 -19497.8 -28793.4 -29005.7 -42965.8 -41515.1 -41414.1 -49269 -44622.7 -56211 -58246.6 -59947.8 -74856.9 -75788.7 -85595.6 -86068.5 -90106.6 -97590.1 -89310.9 -100394 -98038.7 -93946.8 -72236.2 -26661.1 -48310.6 -56725.9 -49340.6 -47495.6 -34294.4 -42900.1 -35088.7 -26325.5 -30411.3 -23169.3 -28121.6 -23479.4 -15649.6 -13597.7 -2631.53 -11079.3 -10347 -11424.2 -17112.3 -9111.34 -15145.8 -8873.88 -616.074 -5974.35 2324.8 
569.777 -1694.94 -287.304 2167.88 2438.95 5434.23 5268.63 5597.74 7871.35 7940.62 11795.7 13706.7 16034.3 20528.7 21470.4 24374.9 25190.4 27197.2 30352.4 29927.5 32173.3 30516.4 26499.4 17479.5 4262.72 5244.07 6360.55 5241.53 4758.13 2061.57 2791.05 29.1766 -2137.83 -1610.23 -3153.01 -2123.16 -3311.18 -4326.41 -4027.79 -5766.42 -3832.4 -4013.58 -2959.06 -616.947 -1520.28 -81.399 -1425.92 -2601.58 -1817.14 -4269.91 
67537.2 24597.5 43822.1 63031.3 63318.2 92603.2 89482.1 89056.2 105159 94736.8 118149 121458 123772 154198 155663 175710 176209 183894 198533 180264 203538 199296 192695 149934 56569.3 104324 122441 106658 102805 75000.6 93748.9 78088.5 59940.3 68757.5 53599.7 64044.3 54452 37637.6 32874 9502.51 27158.7 25646.4 27421.4 38660.9 21365.1 33918.9 20759.6 3063.17 14527.3 -2456.13 
-64641.8 -26394 -43136.6 -58563.4 -58548.8 -82938.8 -79945.5 -78936.7 -91394.5 -81093.2 -98686.1 -99453.3 -98858.5 -122635 -122824 -138394 -137710 -142447 -152468 -135450 -155212 -153531 -152512 -122789 -49495.7 -94357.6 -110647 -96854.4 -93528.9 -69983.2 -86928.4 -75230.6 -60442.4 -68225.5 -55553.1 -64206.6 -56295.9 -41217.7 -36104.4 -15708.2 -30218.9 -28885.7 -29294.4 -37405.7 -22024.6 -32257 -21238.3 -5679.22 -15733.1 -2215.32 
-6291.09 -2612.05 -4149.1 -5444.86 -5465.26 -7605.47 -7210.46 -6986.86 -7938.58 -6832.72 -8241.82 -8190.11 -7943.06 -9972.31 -9979.77 -11288 -11194 -11575 -12377 -10824.1 -12764.3 -12924.1 -13341.6 -11299.2 -5167.07 -9549.62 -11028 -9730.88 -9497.61 -7437.79 -9073.37 -8107.13 -6751.41 -7442.06 -6247.7 -6942.71 -6218.67 -4728.14 -4130.11 -2203.82 -3436.27 -3319.34 -3203.66 -3789.82 -2364.12 -3266.11 -2276.47 -806.39 -1742.89 -599.981 
26477.7 8991.59 16930.2 25236.4 25428.9 37829.2 36543.1 36479 43516.7 39475.1 49915.8 51867.9 53559.7 66943.4 67865.8 76692.8 77201.4 80931.3 87781.1 80583.7 90457.7 88278.8 84362.4 64655.6 23798.1 42672.5 50073.9 43543.6 41879.3 30137 37657.6 30585.6 22753 26334.5 19870.7 24244.4 20071.4 13154.6 11374.9 1665.26 9183.42 8513.63 9536.65 14688.3 7640.34 13037.5 7484.26 215.353 4943.12 -2513.87 
-35087.7 -15363.3 -23642 -30498 -30338.7 -41785.7 -40160.9 -39326.2 -44648.3 -38882.6 -46075.2 -45295.5 -43431.6 -53618 -53209.4 -59940.6 -59129.2 -60577.4 -64189.2 -55227.4 -64815.4 -65120.3 -67325.6 -56983.2 -25266.1 -49297.8 -57418.6 -50522.4 -49111.3 -37985.6 -46882.5 -42201 -35385.1 -39277.3 -33212.1 -37222.2 -33613.1 -25904.9 -22839.1 -12692.6 -19381.8 -18774.3 -18217.2 -21063.5 -13169.3 -17897.9 -12725.8 -4909.62 -9940.56 -4134.81 
