-12642.9 -11775.5 7083.22 -125316 -147845 -320867 -232314 -224902 -385598 -285344 -392272 -356188 -343529 -385552 -225290 -293906 -230950 -249452 -367428 -238479 -414094 -372124 -368950 -356017 -14025 -5390.07 3721.5 -23223.3 -90637.3 102883 -3162.98 68106.2 -31622 -191897 -107899 -337786 -377993 -428144 -446286 -173276 -171504 41739.9 75134.2 1814.94 138795 -76487.1 -114530 -237377 -316441 -119164 
29675.1 -4132.74 24664.2 127635 71812.7 86205.4 112234 95531 119530 190763 253320 139098 138469 226767 299489 492700 419364 435258 513413 568251 703559 712129 612694 540451 452928 518250 484182 491398 546127 487364 577448 422933 283395 212062 185078 257058 185807 174675 179738 149825 273577 271423 190097 219441 304910 416712 198769 97680.7 138493 125243 
52407.5 125431 69389.4 50524.3 17139.8 -21915.7 74322.9 74829.6 58447.4 -10973.8 -134000 -136170 -197151 -265376 -388140 -561092 -520684 -535635 -543664 -540128 -666775 -625211 -559896 -458941 -323854 -305844 -232952 -205543 -196895 -164981 -234461 -185696 -208297 -162050 -140243 -263549 -212517 -181951 -127620 -109862 -192175 -102198 -84482.3 -95902.3 -99184.7 -188380 -95952.3 -80646.6 -66580.1 -132746 
280543 124002 144038 215947 59629.7 33427.5 -1835.12 21459 70099.5 -59452.8 -44214 -50149.7 56799.6 171958 101293 208400 172485 267728 338818 207963 313505 337301 388222 394042 187943 240955 273142 405651 512479 367009 478490 409912 441079 431665 262634 348068 269976 282439 258007 53500.3 100367 26353.5 7929.81 24568.8 -78514.3 24337.7 -96848.8 -119357 -55846.7 -162126 
40679.6 30176.6 29712.7 128990 52763.7 157205 151334 153337 232443 153696 246182 193996 201232 254601 145283 258480 202437 224020 307647 214731 342371 327412 311849 302287 98472.2 151428 130764 161389 220645 72956.8 177240 85418.3 87782.1 151116 76903.8 226667 217710 257900 287732 115628 166730 59498 12455.7 49019.3 -13699.7 135799 56670.4 81232.1 146772 14180.6 
86751.2 71533.8 42705.2 -127957 -139049 -276100 -254794 -232254 -385281 -399338 -503184 -372003 -306044 -367220 -324389 -514111 -442993 -447420 -628158 -648532 -912055 -910786 -793391 -716188 -434195 -467236 -457939 -433260 -500467 -325402 -420659 -244343 -168974 -239256 -212036 -444028 -482952 -502775 -531774 -339671 -390837 -217629 -82276.4 -172413 -207099 -465631 -354776 -353213 -433288 -297571 
-243944 -118328 -218312 -311650 25289.9 52316.5 16352.8 -32132.8 17471.8 140424 -38237.1 -65808 -311020 -551562 -566738 -914739 -819747 -928011 -940885 -713243 -832791 -827913 -809554 -737579 -478956 -605518 -521202 -643988 -747224 -551209 -795163 -662294 -613254 -477713 -238636 -357774 -115150 -94469.8 -77961.7 62918.3 -198473 -204153 -189260 -186667 -100298 -200075 209942 388054 323199 323227 
-61642.5 -51467.8 5629.71 22618.8 34049 100482 29680.2 62955 101146 43602.9 134724 201128 282066 311331 285432 351650 340142 376236 380682 269411 346817 312205 324085 264015 53747.4 7861.26 -15217.9 981.457 -5759.86 -97284.8 -38569.6 -23899.1 99965.2 140770 81134.8 205593 194149 195137 151739 35978.8 42410.9 -80054.7 -57782.1 -40630.3 -128610 -51587.3 -43955.9 10199 7179.34 -6739.66 
65517.3 -43131.6 -36619.9 -108182 -131523 -178401 -198073 -159883 -174770 -211919 -257106 -233766 -213130 -259142 -275348 -318092 -273833 -236193 -256616 -260958 -293921 -273243 -204504 -196204 -141342 -154178 -127887 -85150.5 -93501.7 -52289.5 -76378.3 -16778.8 55700.4 54108 69336 49285.7 86886.6 109851 68201.6 59532.7 -28566.3 -59310.2 -56296.7 -116843 -123811 -150584 -90295.1 -56797.6 -99707.8 -100758 
-56376.2 1946.79 47307.7 88223.4 60367.2 105269 103638 127110 132099 111790 202711 243757 320807 377332 373177 459491 420730 435732 427576 336102 363644 332910 309906 250203 93034.8 68774.5 24247.7 29699.6 32192.3 -38941.1 36563.5 22283.9 64028 75192.4 34110.9 106636 52885.4 45897.1 35350.8 -18791.9 43570.4 8056.26 22284.7 36529.5 -5531.46 34608.2 -42252.7 -57137.9 -51081.8 -41194.3 
-201317 -187011 -100041 -275916 -172517 -236599 -274193 -241461 -382772 -231758 -205719 -130926 -78093.3 -154428 75154 90567.9 140111 126240 -16714 103549 45045.1 18012.2 -2352.54 -97596.1 109206 55149.4 -3772.74 -87676.2 -242982 -78355.2 -173602 -103246 -81697.5 -225114 -100821 -173200 -182112 -222950 -308113 -60657.5 -67748.5 -23110.9 28831.6 -40227.6 88802.2 -37076.3 -25516.4 -47182.1 -175454 75556 
-306046 -255305 -219043 -188708 -88022.9 -60791.1 12894.6 -12280.7 -29541.1 213774 262190 115521 -15349.3 -56408.2 137098 296309 277037 209546 243072 482452 547142 557713 370408 232439 359428 366368 302758 176951 141863 270820 271456 190984 10672.4 -68938.1 121434 135854 173444 145514 138070 318567 361748 403110 270130 239585 490705 529240 390139 271788 212931 319763 
-266298 -255161 -155897 -176311 -36876.3 -24560.2 -94793.9 -90107.2 -133573 80642 213719 236867 288598 326303 601430 788287 760066 736529 678675 773252 833512 777247 635651 445546 403173 315850 204719 103120 31786.9 125122 163816 164717 164991 59806.8 146299 204185 141019 58610.6 -34343.6 115695 211131 195214 185710 170844 278392 283397 168326 91311.8 -4.97375 217857 
-56513.3 -54125.6 -104000 -145456 -90935.9 -91884.5 -43981 -40519.1 -57999 -1344.05 -53286.3 -94293.1 -177460 -268042 -278877 -363502 -343946 -380215 -410430 -334373 -437926 -428280 -420800 -413064 -264232 -286925 -286388 -307088 -327674 -214453 -255506 -202210 -203434 -166380 -37485.4 -101045 -25454.7 11356.5 19695.6 99331.4 7415.4 41591.3 18580.5 -50203 13004.5 -45836.3 31908.4 57379.6 9006.25 585.589 
-266741 -92801.9 -65674 -143231 -89436.7 -116715 -2255.25 -12596.8 -93111.5 17538.3 -32956.4 -69119.1 -176820 -290257 -210691 -262136 -207072 -277447 -304013 -117510 -163683 -128288 -193916 -202227 63082.5 81039.5 88432.9 -34097.2 -147486 -43609.6 -186336 -200610 -347541 -408868 -241769 -331974 -242325 -243263 -198531 13233 -31522.3 59247.8 10683.4 -3071.45 203846 128898 150133 98200.9 56256.2 166275 
-185554 -38011.1 -45446.5 -11679.6 -4865.44 -118638 78445.9 23774.8 -20126 121933 -26120.8 -135173 -310363 -350638 -252978 -301357 -248466 -329827 -280896 -29799.7 -98364.3 -7372.84 -139559 -107806 200863 255105 317729 215992 216849 354440 236793 195097 -102208 -203137 -90738.7 -296102 -265695 -334869 -253446 -12753.1 14848.7 259495 167048 196529 435760 329608 249831 53996.7 56963.2 148571 
246339 8752.81 6568.73 100667 -27638.2 25601.6 -43548.9 -20292.3 53165.1 -11947.4 94536.4 18543.7 96780.4 207689 160671 368731 284609 366457 441030 324543 468735 451273 461979 410490 168662 228992 184557 301824 422916 308389 501982 410113 460099 472603 356854 522537 443120 482067 438645 225763 298972 166821 113825 87237.2 -2949.46 164722 -2408.19 -2221.4 35857.1 -95827.2 
100440 111857 89527.8 61641.5 -69497.4 -142106 -22686.1 5054.57 -55333.3 -131927 -211477 -201257 -190791 -210193 -295905 -374105 -347766 -334330 -370493 -407883 -543642 -502070 -439681 -370138 -237436 -189027 -152657 -96030.7 -73649.6 -40875.8 -50082.7 -10179.3 -46247.5 -64455.8 -76681 -203445 -222688 -199994 -163711 -125541 -143070 -21643.8 -5633.51 -55176 -55337.5 -157572 -185050 -236411 -237966 -261817 
173010 120495 73411.2 149776 130221 103637 72686.2 46745.5 93298.8 40503 11098.8 39964.2 74543.5 164278 123974 93453.5 68759.4 82840.9 100435 8834.9 -24652.8 -27428.5 -6045.15 39497 -68778 -88690.2 -65361.3 -3309.58 88949.9 53733.5 110881 137159 171809 207371 98977.6 72151.8 5050.61 -27081 -21507.7 -104954 -64621.3 -29701.3 8606.18 43340.8 -81341 -93809.2 -92737.1 -105999 -59451.6 -114380 
501809 210897 239304 474994 178082 157427 86776.5 79430.9 170887 36028.8 177728 129889 345850 689416 675904 1.04211e+06 891495 1.02834e+06 1.15921e+06 914139 1.14665e+06 1.14464e+06 1.11672e+06 1.07737e+06 627864 752206 714050 913217 1.15835e+06 887462 1.20518e+06 1.00614e+06 957992 875107 516054 695401 417777 376952 353331 37163.7 330558 276016 238248 308166 118134 332678 -76716.8 -233259 -87007.7 -224814 
269338 127903 104048 164680 84195.4 120171 12073.6 33379.7 108010 -56763.9 2536.16 85746.6 222031 334276 209208 236879 192542 264078 277570 31998 56545.1 20408.7 114402 138136 -157592 -187498 -191167 -65312.8 34680.8 -105114 30792.7 69698.3 258444 355536 180875 291218 220734 237136 205175 -39373.5 -23941.7 -141820 -83898.6 -72790.2 -316330 -246472 -234008 -159055 -110892 -235595 
-252999 -278219 -224223 -442590 -234295 -298538 -375683 -351397 -478595 -281723 -300519 -229519 -239438 -385843 -137247 -203835 -119491 -155235 -314137 -132188 -232987 -261206 -267913 -357921 -73257.9 -177199 -223055 -330262 -504146 -248422 -394754 -253793 -179215 -285846 -85524.1 -185345 -122937 -159586 -269373 19476 -78221.2 -51325.5 1352.2 -100197 38864.9 -119320 19951.2 55362.9 -115819 144228 
-90572.5 -155088 -86502.6 -149596 -133749 -248820 -220420 -231641 -337919 -144830 -156950 -214148 -222646 -216585 52036.8 186150 205220 197229 162554 369502 396793 428694 324512 232407 451656 486557 454893 394133 344897 492079 450487 400974 235416 27044.9 111043 25243.2 -28130 -97204.7 -150339 80693.8 158311 271802 218827 177978 389830 329151 163910 4646 -63433.3 140896 
119306 4810.94 74950.8 104228 -66360.1 -170055 -113215 -101094 -191673 -125152 -65040.4 -101634 12126.3 152923 320494 564468 513527 560566 545404 557411 594733 617153 542805 458526 473676 555776 497448 541993 593511 604921 720099 626290 484577 293660 226035 198662 24963.3 -29902.6 -63975.6 11915.3 197837 308457 267122 232350 317752 309822 -17556.3 -226617 -230605 -115645 
218864 168879 131228 222331 157021 244260 152194 173058 307498 71979.8 107465 191436 279866 354999 108962 55813.4 26509.2 88607.7 153021 -117944 -69995.2 -99356.5 16211.4 86749.5 -266936 -302433 -264485 -150140 -53773.2 -266770 -167516 -135169 69891.1 253490 68953.4 210890 207808 251861 265164 -56587.5 -93722.1 -256669 -201118 -142015 -417872 -305798 -200833 -63348.3 21666.6 -190161 
-64868.3 -137314 -61415.1 -263320 -217879 -377442 -405781 -366903 -538280 -412606 -452239 -347846 -257595 -307029 -62295.5 -81961.7 -8803.69 2167.65 -161158 -55448.2 -183083 -180721 -159983 -221751 47236 -7843.08 -37888.8 -72314.4 -193319 13768.8 -86423.4 30026.7 57952.5 -119579 -29641.9 -184200 -226568 -288664 -390869 -123140 -143698 -35800.5 32068.3 -65675.5 44458.2 -149818 -146424 -211043 -347417 -70996.6 
-61096.8 50627.5 19197.6 -18901.6 24344.8 61123.8 82594 92552.2 127274 20365.5 -60207 -16254.1 -80576.1 -189489 -353563 -547983 -485287 -501991 -490751 -521642 -575858 -558524 -478411 -393692 -369208 -400518 -323767 -331282 -367122 -394118 -492086 -418227 -337593 -213407 -182116 -197681 -69540.1 -23299.3 16434.1 -42694 -192979 -238982 -216103 -198471 -247281 -268551 -56325.8 60444.4 70227.3 -20744 
97820.2 87821.6 80004.4 183244 56915.5 39424.5 125772 100911 121247 108028 106861 16556 -3783.77 79734.9 59346.2 169572 128570 134857 220713 231502 295097 336465 276670 286577 250156 337609 348956 374042 456988 386439 452448 337916 186529 156614 105925 119929 72513.3 68169.6 122267 75221.3 162702 211812 130683 162539 209274 273560 98561.6 -15743.6 53429 -9869.84 
65433.5 -64504.4 19782.9 -66474.5 -192851 -331283 -294351 -254857 -387161 -322588 -308275 -290523 -179368 -127675 58240.4 210474 226436 274267 204541 253509 234969 265111 244656 170743 309087 356270 317407 340111 315465 396162 418587 405511 330122 135065 135643 68137.3 -34890.3 -76159.1 -139479 3522.27 82970.3 174775 157983 77389.5 187772 113118 -91314.5 -246976 -312110 -143174 
