-116241 212816 113105 -60674.9 685.133 835.985 6710.74 4217.44 -2703.74 1074.47 -2741.49 -13686.6 -21603.8 -24066.9 -24412.7 -30837.9 -43437.8 -42084.2 -58263.4 -66537 -79472.3 -87616.3 -107348 -85013.1 -31584 -59861.1 -67253.8 -88421.6 -91645.4 -88956 -95972.5 -110183 -102085 -99736 -98898.1 -87293.3 -94928.6 -97072.8 -108097 -107565 -113974 -102389 -103824 -102575 -92147.9 -99699.2 -106754 -100699 -112810 -142786 
89320.8 -73587.6 -16740.7 60500.4 36344.9 37057.3 37214.5 40981.8 50628.1 51130.8 57652.9 66214.3 75276 85810.1 92735 100664 106764 109475 119247 118271 124085 124765 125093 96956 28813.2 52851.3 62226 65596.9 61591.5 56356.8 58570.8 61282.6 52614.2 55000.7 51969.9 47395 48877.8 44411.5 47436.6 42356.1 45509.7 41848.3 42988.9 45623.8 42060.2 43126.4 40566 36146.1 38064.4 50034.5 
-3696.01 109868 86357.1 11509.7 47581.5 50306.4 57260.8 57508.9 62685.1 65550.9 70074.3 70665.2 74005.7 84626.2 93527.8 100059 97067.7 103701 102133 94953.9 94701.1 92716.9 82559.8 80213.1 45928.6 60741.7 67322.5 49069 40093.8 37004.7 34065.5 22475.1 15950.5 21330.5 16387.5 19189.2 11664.1 1273.87 -8235.29 -18761.5 -23248.6 -18376.9 -21671.8 -18608.2 -14565.7 -22426.7 -34361.7 -36765 -49645.5 -65285.9 
193799 -30504.4 67224.5 142735 138984 147677 158181 166009 194773 199525 221448 243328 268604 306181 333690 362492 374602 389913 410839 400919 415065 415091 407683 346559 148134 227913 258008 240788 218848 203105 204593 195625 166140 177716 163551 154926 147832 123688 118164 92055.4 93200.9 89715.6 86007.8 95379.5 90903.2 82722.5 62272.2 47117.2 34235.5 41687.6 
73078.5 -69724.7 -21381 47339.6 25542.4 27175.1 26931.5 29583.3 36581.4 36220.1 41311.3 48581.3 55511.1 62928.4 67459.4 72851.2 78104.7 79726.8 87915.4 88316.9 93306.5 94461 97616.6 77423.4 26476.2 46278.6 53786.1 57921.9 55001.4 50594.3 52117.3 54897.8 47894.8 48971.3 46516.3 42011 42871.4 38586.2 40622.2 36555.1 39069.6 35065.1 35725.3 37245.2 33123.2 34099.5 33013.5 29180.3 32128.3 43167.1 
-109574 288904 180900 -47083.8 46486.2 50336.1 64033.4 62039.3 62462.3 68817.8 70808 62934.4 60101.2 68824.3 78165.5 81861 68735.3 77054.7 61357.2 46306.5 36454.1 28685.8 4107.53 26262.7 36241.1 34028.1 34568.4 -3537.58 -15459.4 -14844.4 -21906.8 -45384 -46314.9 -38043.3 -42850.9 -31154.2 -44989 -56745.9 -75313.8 -86866.2 -97477 -82812.3 -88894.2 -85243.3 -72391.5 -87511.8 -106275 -105025 -131277 -173624 
-153126 -179888 -215342 -141898 -197300 -211102 -232886 -243373 -277456 -288906 -316865 -337196 -365003 -415191 -452588 -483517 -485505 -506130 -516012 -490882 -492911 -480095 -444868 -377606 -155051 -233336 -267477 -222068 -188093 -168309 -162573 -136028 -104843 -123849 -105955 -107456 -89992.9 -53514.7 -34413.7 -53.2033 4062.56 -3789.53 1385.44 -13447 -17519.2 2078.81 37620.2 52016.7 80893.7 101217 
26489 -84762.5 -57528.6 7829.22 -18788.3 -18708.9 -22604.4 -22018.5 -23025.4 -24784.6 -25543.5 -23412 -23273.5 -27207.5 -31342.7 -34105.8 -31013.2 -34846.2 -31705 -27529.5 -26529.2 -25585.3 -18590.9 -23687.8 -19487 -21964.4 -23257.3 -11234.1 -7041.48 -7010.02 -5384.37 2116.29 3850.19 742.309 2743.62 -328.22 3948.02 8128.91 13996.3 18953.2 22432 18149.9 20284.1 19106.9 15122.3 19961.2 26831.1 27027.3 36260.1 49411.6 
-58209.9 -11879.7 -38871 -47986.8 -56211.2 -58733.6 -63630 -65643.6 -75278.6 -76702.6 -83731 -89794.1 -97456.4 -110514 -120487 -130465 -132846 -139138 -145262 -140657 -146813 -148554 -146445 -131071 -63564 -94919.9 -106585 -97614.3 -89836.3 -85216 -85737.4 -80262 -68815.6 -73968.9 -68082.3 -65593.3 -61409.4 -50861.1 -45784.6 -33390.6 -31554 -31225.8 -28563.7 -31459.9 -30792.6 -25802.1 -15437 -9729.17 -1441.22 651.887 
26041.9 14862.5 22425.6 22458.8 26443.5 27990.7 30622.8 32711.9 37435.5 39142.2 42863.3 45693.2 49523.7 55838.4 60060.7 62955.9 62566.4 64034.2 64763.5 60450 59489.7 56610.4 50457.8 38386.6 8062.37 16809.5 21031 16810.9 13300.2 10650.1 10049.9 7773.68 4465.77 6973.29 5190.09 5725.19 4432.79 610.196 -708.143 -4010.66 -3787.22 -2601.44 -2166.22 144.978 778.631 -975.176 -4877.8 -6132.57 -8378.77 -8985.83 
-157657 77999.1 -19059.6 -108690 -102064 -107816 -115959 -120031 -142682 -143613 -160044 -178488 -198363 -225985 -247339 -274150 -287137 -300887 -321504 -317244 -337901 -347357 -356788 -324123 -167655 -249403 -275058 -264261 -249031 -239292 -244611 -239900 -211668 -220709 -207706 -195642 -190565 -171209 -166587 -140599 -139277 -133013 -126621 -131248 -125164 -118401 -101526 -86149.4 -72727.3 -81610.3 
-210699 -164756 -232719 -184302 -236806 -251673 -275477 -287084 -329544 -341875 -375058 -400859 -435441 -496078 -541873 -583886 -591291 -617674 -635958 -610246 -620105 -610588 -576231 -492633 -209892 -314604 -357937 -308023 -268085 -245219 -241961 -213474 -172852 -195655 -173593 -171470 -152815 -110981 -91666.5 -49090.3 -45231.9 -51116.8 -43503 -60341.5 -62806.7 -41196 666.695 20806 55498.3 73966.7 
-126173 -120216 -159178 -113806 -151403 -161193 -176695 -183319 -209770 -217149 -238184 -254329 -275996 -314949 -344834 -372126 -377110 -395415 -407363 -392088 -399473 -394638 -374389 -325552 -148154 -215732 -243656 -209356 -182532 -167741 -164941 -144746 -117922 -132445 -117718 -116294 -102603 -73754.7 -58894.1 -29903.6 -26182.1 -29947.1 -23895.5 -34080.3 -35412.1 -20153.8 7840.07 21272.8 45253.4 60375.4 
-153445 6472.34 -67378.7 -119637 -114142 -121018 -128906 -136379 -159003 -163722 -181067 -197481 -216882 -246614 -267771 -287562 -295264 -305982 -320617 -311480 -318594 -314689 -302667 -247163 -91500.7 -145520 -168764 -155353 -137763 -124381 -123883 -116232 -95336.6 -104417 -94326 -89886.8 -84314.9 -65153.8 -60653.8 -42209.8 -44043.1 -42402.7 -41146.1 -49371.4 -46353.2 -39976.6 -23997.7 -13417.4 -5194.83 -9975.92 
-141457 67877.7 -15665.7 -94172.2 -93852.4 -99096.1 -107415 -110939 -132111 -133492 -148430 -164974 -183356 -208874 -228570 -254162 -265343 -277689 -295762 -290172 -308883 -317507 -325158 -296473 -152246 -229603 -252883 -242161 -228766 -220544 -226205 -222207 -196408 -205293 -193096 -181976 -177791 -161458 -158443 -134911 -133684 -128700 -122722 -127479 -123246 -117400 -101936 -88269.9 -74967.8 -83552.4 
-96062.5 11440.6 -35513.8 -71400.5 -68505.6 -73029.5 -78298.7 -82891.8 -97583.4 -100612 -111486 -122211 -134822 -153291 -166496 -180246 -185589 -192095 -201332 -195228 -200137 -197972 -191160 -157337 -58966.7 -95248 -109288 -101087 -90502.4 -82954.2 -84053 -80488.9 -67369.1 -73436.3 -67261.4 -63843.7 -61316 -50965.3 -49953.1 -39133.2 -40788 -39731.6 -38779.7 -43949.2 -42213.2 -38837.1 -29643.2 -22718.2 -17025.8 -21246.2 
80838.9 -111252 -48878.4 44311.9 18315.2 19205.4 18990.4 21123.2 29529.9 28439.2 33862.9 43018.9 51490.2 58944.3 64159.1 73853.2 82182.1 84651.8 95723.1 97307 107124 112437 122480 106878 50136 81412.3 89404.6 95560.3 93713.1 90673.3 95424.2 101026 91417.9 92635.7 89358.3 81523.6 84236.7 82105.2 87012.7 81723 84406.7 78640.5 78066.3 78835.9 73931.7 76139.3 76089.9 70593.2 72443.2 87911.5 
-33762.3 189264 133760 -2167.76 56553 60666.8 71237.2 72110.5 77440.9 82787.7 88265 87153.5 90179.3 103128 113961 119706 112343 119798 112458 99950.2 93534.6 86002.7 65086.6 63928.4 34753.7 42577.4 47876.7 20258.6 8347.4 4900.01 -624.438 -17666.8 -22315.9 -14943.5 -19987 -12670.6 -23056.7 -35393.2 -48604.6 -59382 -65432.9 -55807.4 -59068.3 -54430.9 -46595.8 -57712.8 -73163.5 -73979 -91691.1 -117661 
108311 -4331.56 53424.7 77825 100350 106409 117622 119602 139479 141412 155910 169863 186180 211898 232819 258914 267356 281923 296590 289309 307752 317101 323410 306670 172331 250656 274040 254981 239636 232665 237062 227428 200967 211264 197815 188704 180837 161314 152622 125027 120161 117690 109016 113371 111232 101268 81038.5 66863.7 46527.5 44015.1 
368728 -33793.3 148338 269956 288061 306617 332372 346034 404488 413654 458135 501686 552371 628947 686337 748821 771841 805590 846306 823728 856993 862205 852677 747520 347141 525600 588438 546353 501607 472849 478338 456880 393037 419164 387951 369285 352310 300979 285432 225368 223172 217376 205564 223367 215769 195100 148088 114822 78844 86238.9 
142187 -12836.8 59985.3 102569 117325 124968 136586 140845 164744 167967 185794 203214 223425 254289 278185 306150 316010 331013 347961 338931 355787 361465 362443 328936 167100 248496 274805 255587 237349 227025 230587 221065 192905 204077 190012 180871 173194 151744 144353 116836 114204 111499 104471 110978 108102 98597.5 77940.8 63055.3 44843 46117.6 
-264372 -15361.2 -141055 -205424 -221027 -233656 -252726 -263899 -306901 -314702 -347339 -377766 -414427 -471943 -514935 -558558 -573000 -597990 -625642 -607094 -627826 -628095 -613467 -530739 -237008 -359235 -405110 -370973 -336396 -314046 -315756 -297041 -251770 -271766 -249357 -238871 -225013 -185439 -171649 -127879 -125983 -124016 -116548 -130566 -126546 -109912 -73374.8 -50384 -23179.8 -23315 
-92394.1 -6019.2 -50572.8 -71316.6 -79018.6 -83554 -90951.9 -94877.4 -110698 -113570 -125266 -136213 -149472 -170090 -185683 -202278 -207478 -216575 -226250 -219078 -227055 -227638 -222922 -195139 -89410.2 -135641 -152066 -139201 -126977 -119766 -121377 -114914 -98383.5 -106154 -98088.2 -94135.1 -89433.9 -75741.7 -71139.9 -55028.3 -54111.7 -53537.2 -50339 -55151.9 -53834.1 -47578.7 -34053.5 -25298.6 -14078.5 -13516.9 
28452 105482 98040.7 35715 70254.5 74639.6 84039.9 87019.7 97987.1 102738 112011 117147 125683 143345 157188 168056 166467 174819 175301 164430 163838 158927 143707 127139 58127 83544.2 94379.1 73048.3 60272.8 54099 51054.7 38377 27891.9 35389.6 28607.4 30993.5 23102.5 9563.74 164.22 -13206.4 -16635.9 -11332.6 -13958.2 -8511.41 -4480.59 -13274.4 -28026.1 -32145.2 -46229.4 -60056.5 
191381 -52686.9 49276.6 136658 132152 140560 150945 157847 186004 189807 210647 232204 256569 291815 317786 347279 359977 374585 395900 386925 403763 406889 405011 350880 157784 242901 272738 257825 238128 224628 228530 221722 191782 203319 189282 178941 173059 150789 146605 120010 120734 116005 111137 119231 113921 106273 86542.6 70396.6 56702.3 66044.9 
-150993 134512 32417.4 -97071.6 -67655.5 -71411 -73939.3 -77420.6 -94205.4 -92889.8 -104537 -120304 -135725 -154025 -167182 -185579 -198228 -206040 -225686 -226448 -244705 -254085 -268140 -237725 -116531 -179489 -199425 -201811 -193717 -186183 -192011 -194628 -173470 -178207 -169580 -157313 -156667 -144261 -144974 -127922 -129497 -120579 -117190 -119538 -111071 -109612 -101423 -89313.3 -86270.9 -104237 
-10516.6 -4174.08 -9600.91 -7750.35 -14548.4 -14686.3 -17225.7 -17927.5 -21397.7 -22186 -24403.6 -26339.6 -29094 -33201.6 -36699.2 -41131.1 -41560.5 -43692.7 -44709.1 -41833.9 -44058.8 -45004.7 -44338.4 -43053 -23583 -36076.5 -39012.3 -35037.5 -33091.1 -32720.5 -34038 -32611.7 -28801.5 -31113.1 -29150.6 -28264.4 -27532.2 -25531.5 -24694.3 -20626 -19674.6 -20413 -19322.3 -20245.3 -21168 -19548.5 -16058.1 -14405.4 -9948.75 -8630.33 
82690.9 10775.9 50518.3 65688.7 73462.4 77684.7 84173 87314.1 101093 103392 114067 123802 135449 154330 168770 183443 188332 197335 206622 201115 208956 210216 206999 183051 87992.7 129735 145231 132862 121018 113679 113851 106560 90873.3 97318.9 89354.6 85650.6 80147.1 65941.1 59890.3 44010.4 42463.9 41686.6 38416.5 42714.3 41320.6 35080.8 22184.1 14233.6 4242.59 2706.04 
-61277.1 134169 73956.2 -29803.7 3531.4 5233.68 8826.89 8909.35 5843.26 9411.69 8635 3288.4 -231.901 -163.428 -42.6629 -5157.3 -13055 -13427.4 -23989.4 -30260.7 -42233.9 -51890 -69509.8 -66011.2 -39699.7 -62704.6 -67383.6 -79857.3 -82963 -83145.1 -88885.5 -97229.4 -90718 -89564.6 -88267.4 -79887.1 -84129.4 -85313.4 -90738 -87655.8 -89587.5 -82064.1 -81143.9 -79065.4 -72878.4 -76689.7 -79608.4 -75135.2 -79400.7 -95799.6 
