-109740 -14302.1 -45912.3 -48933.5 -41718.2 -70035.2 -78534.7 -80300.1 -104299 -114615 -146725 -154799 -160441 -183549 -176550 -198018 -200177 -190758 -205304 -194889 -208799 -204800 -194484 -162168 -85242.5 -125237 -140882 -124398 -117523 -96634 -106342 -89853.1 -74101.3 -76180.8 -59554.2 -74318.9 -63189.9 -53551.1 -55168.2 -40181.9 -58840.2 -48380.3 -39515.8 -40497.7 -20298.7 -31833.3 -16526.3 -9566.61 -14850.7 -9819.78 
66090.7 7958.82 26481.6 28122.3 23102 40260 45553.8 47616.2 64056.2 71645.3 92567 98366.3 102884 118459 115090 129482 131758 128105 139938 135692 145661 142616 132918 106402 52441.3 74826.2 84546.2 73761.6 67709.5 53172.7 57845.6 45944 35046.9 35762.4 25459.1 34481.3 27741.1 22709.4 24941 16729.5 29479 23597.7 18668.2 19314.4 6903.04 14124.7 4056.27 -263.417 2941.02 -1075.76 
-12509 -111.191 -3650.74 -3971.63 -3925.51 -7895.33 -9297.43 -9210.18 -10981.4 -11886.5 -15829.6 -17420 -18619.8 -21504.5 -21455.9 -24109.3 -24404.5 -21663.7 -19889.7 -14937.2 -12713.1 -9726.62 -8571.46 -8285.08 -3661.19 -8781.82 -9408.68 -7717.17 -8876.68 -8370.94 -11229.1 -11907.6 -12411 -14482.8 -13852.5 -17020.3 -16915.4 -16326.4 -16572.2 -14656.4 -15972.8 -14595.9 -13254.9 -13509.6 -11090.7 -11995.2 -10772 -10082 -10836.5 -11419.8 
142922 20723.2 61136.6 65207.7 53737.6 89756.2 100784 105772 142307 158627 202599 213394 221395 253371 243960 273408 277041 270247 299317 294844 321377 318635 298600 238327 118477 167113 190604 167961 152819 119616 127783 99045.6 72434.2 71140.3 46993.1 63907.2 47385.9 35321.9 39306.7 21355.1 49451.2 36778.3 26346.4 27308.4 977.679 17244.5 -4981.73 -14260.5 -7563.29 -17969 
58138 8067.84 24585.5 26444.9 22524.1 37577.5 42430.4 44359.8 58429.7 64698.7 82324.7 86823.8 90071.2 102693 99002.3 110631 111643 107179 115995 111283 119071 116080 108103 86702.3 42160 62364.7 71170.7 62257.7 57384 45502.9 50247.5 40539.5 31353.9 31895.1 22957.4 30654.3 24674 19955.9 21251.2 13662.5 24390 19205.2 14871.1 15393.2 4987.17 11552.6 3216.52 -48.9563 3045.24 -297.688 
-100923 -10624.5 -39200.7 -41648.4 -35425.5 -62282.5 -70594.2 -72260.5 -94186.7 -104183 -135066 -144033 -150716 -173474 -168819 -190091 -193150 -183996 -195287 -182474 -191514 -184240 -172605 -142879 -72594.2 -108565 -121162 -105168 -99649.6 -81383 -91586.3 -78246.2 -65609.8 -69334.7 -55448.7 -71095.1 -62492 -54936.2 -57417.5 -44051.8 -61328.6 -52018.8 -44000.1 -45392.8 -26759.9 -37204.6 -23534.3 -17536.6 -22856 -19233.6 
-86849 -15134.4 -39037.3 -42554.9 -35049 -57011 -64778.3 -71328 -98506.8 -111119 -139714 -146554 -151899 -172277 -165874 -184061 -185399 -183475 -206125 -207631 -227068 -224025 -203930 -151704 -64474.7 -91330.1 -108608 -94953.3 -81590.7 -58081.4 -61064.3 -39408.6 -19629.9 -16408.2 -676.223 -9680.46 1480.9 8030.18 4303.98 14186.8 -5691.99 1203.04 6692.85 6546.78 21980.4 10777.8 25739.6 30711.1 26226.7 35535.3 
26850.9 3280.92 10954.4 11946.1 10797.2 18145.1 20691.8 21385.2 27045.9 29547.4 37473.6 39668 41160.1 46645.7 45088.4 50148.5 50267.4 46704.6 48061.2 43265.6 44224.6 41291.1 38003.9 31172.5 14501 24398.4 27832.9 24054.7 23180 19211.8 22704 20086.8 17381.6 18665.1 15329.3 19653 17563 15558.1 15896.9 12115.4 16352.2 13852 11653.6 11968.6 7311.37 10169.1 6867.65 5637 7254.79 6493.41 
-42830.1 -7204.72 -19591 -20645.7 -16843.8 -26962.4 -29610.4 -30371.6 -40585.3 -44765.5 -56849.6 -59212.6 -60834.1 -69657.4 -66199.7 -74495.2 -75510.7 -73922.2 -83675.8 -84106.2 -94129.8 -95843 -92299.5 -76464.8 -42132 -57030.8 -64187.6 -57438.9 -52590.6 -42236.5 -43909.4 -34534.3 -25796.4 -24556.4 -16589 -20597.1 -14870.2 -10435.4 -10976.4 -5380.57 -13526 -9625.76 -6538.22 -6758.53 1124.86 -3712.9 2910.47 5926.16 4142.22 7336.42 
13760 2120.66 5886 6464.17 5509.35 9171.42 10525.6 11528.7 15581.9 17481.2 22009 23221 24203.1 27462.7 26631.5 29541.7 29713.5 28896 31478.1 30677.4 32678.4 31464 28229.5 20911.8 8382.26 12685.3 15054.2 12969.2 11343.8 8156.63 9130.86 6417.31 3921.47 3887.03 1748.59 3520.73 2032.42 1095.9 1647.91 24.5839 2952.95 1832.22 905.931 945.726 -1500.67 178.616 -2035.86 -2762.32 -1983.1 -3145.98 
-140163 -22102.8 -63043.1 -66994.8 -56217.3 -90590.4 -100246 -102521 -134281 -147216 -186576 -194676 -199935 -227983 -216708 -242779 -244856 -235666 -260798 -255507 -281877 -283744 -273095 -228261 -124649 -175654 -198336 -177553 -165564 -135533 -144443 -118443 -93729.7 -92467 -68306.8 -83385.3 -66161.1 -51873 -52901 -33640.8 -58350.8 -44872.2 -33802.5 -34392.5 -8547.56 -23761.1 -3073.32 6563.21 591.178 9334.46 
-129074 -20283.2 -55966.8 -59863.6 -47898 -80006.4 -90105.1 -97118.2 -134878 -152302 -194303 -204627 -212745 -243516 -234897 -262842 -266814 -265305 -299960 -303121 -333705 -332627 -308150 -237170 -111206 -152338 -176490 -155286 -136696 -101640 -105283 -73280.9 -44348.8 -40172.6 -16431.7 -30057.4 -13591.1 -3415.62 -8997.12 5784.44 -22859.6 -12166.2 -3587.09 -4224.26 19667.2 3961.56 26113 34793.1 28912.3 41523.7 
-78007.1 -13005.2 -34618.5 -37150.3 -29804.7 -49014.6 -55120.1 -59668.1 -82967.3 -93670.7 -118958 -124937 -129558 -147897 -142274 -158878 -160979 -160350 -182127 -185010 -204410 -204217 -189048 -144711 -67216.6 -91936.9 -107118 -94354 -82436.4 -60751 -62503.8 -42397.7 -24181.3 -21014.2 -6306.24 -14072.1 -3782.43 2486.49 -820.655 8081.86 -9510.96 -3158.59 1866.5 1495.91 15700.2 5914.38 19340.3 24366.4 20704 28721.8 
-101837 -14223.1 -42410.5 -45305 -36898.5 -62867.5 -71114.3 -75699.5 -103380 -116237 -149044 -157720 -164493 -188643 -182794 -204970 -208227 -204585 -226891 -224317 -243270 -239589 -221647 -172735 -81517.4 -114652 -131479 -114696 -102571 -77729.1 -83001.5 -61455.6 -41808.2 -40774.5 -23703.7 -36275.1 -24868.4 -17285.9 -21344 -9293.39 -30543 -22024.4 -15032.8 -15925.8 2754.18 -9191.78 7070.95 13403.4 8333.43 16344.7 
-127242 -19902.9 -57290.5 -60706.2 -50873.9 -81951.4 -90457.3 -91927.3 -119988 -131219 -166469 -173532 -178007 -203152 -192768 -216214 -218148 -209604 -232088 -227252 -251454 -254114 -246156 -207966 -116006 -162906 -183295 -164549 -154249 -127333 -135539 -112293 -90107.7 -89080.9 -67062.1 -80609 -64851.8 -51499.6 -52065.1 -34343.9 -56306.5 -43819.6 -33531.9 -33964.6 -10261.9 -23772.6 -5011.94 4114.78 -1017 6678.58 
-67537.4 -9558.49 -28423.9 -30471.4 -25183.2 -42523.1 -48040.3 -50877.6 -68720.3 -76877.7 -98280.9 -103804 -107998 -123532 -119329 -133485 -135223 -132041 -145694 -143103 -155011 -152607 -141642 -111157 -52804.9 -75553 -86865.3 -76249.1 -69098.8 -53335.9 -57317.9 -43770.2 -31334 -31010.7 -19842.9 -28221.8 -20680 -15438.8 -17804.7 -9529.92 -23085.6 -17180.5 -12264.1 -12746.7 -298.38 -8040.37 2625.98 6990.06 3772.7 8817.53 
78338.4 10856.5 33739 36047 30855.6 50905 56922.2 58198.8 75306.5 82449.5 104868 110089 113576 129500 123857 138562 139577 132615 143136 136283 147048 145212 138726 116347 62065.8 91107.8 102826 91478 86622.7 71738.1 78606.3 66632.4 55075.9 56179.7 43978.7 53925.5 45472.1 38025.6 38649.4 27659.3 40748.9 33023.3 26489.4 26880.7 12347.3 20511.6 9418.88 4208.17 7732.6 3865.4 
-43800 -4100.43 -16741.8 -17477.4 -14963.8 -26507.7 -29663.4 -29088.1 -36750.9 -40001.4 -52519 -56103.5 -58642.5 -67952.7 -65954.8 -74848.9 -76335.6 -71583.9 -74822.7 -68049.1 -71155.7 -68917.4 -67047.1 -59912.9 -34747.3 -51469 -56078.6 -49285.2 -48411.7 -41632.3 -46638.8 -42215.1 -37886.5 -40214.6 -34431 -41427.9 -37906.7 -34208.5 -34714.1 -28503 -34923.1 -30549 -26725.8 -27423.4 -19132.4 -23162.3 -17688.9 -14742.4 -16802 -16190 
103023 18012.5 48783 51527.3 43085 67303.4 73379.9 73805.1 95798.4 103967 130905 135164 137397 156356 146581 164369 165385 158988 178875 177814 200813 206857 203813 175332 102473 141279 158681 143940 135152 112713 118196 98044.6 78695.4 76378.7 57307.4 66468 52328.7 40181.3 39565 24775.9 42151.9 31751.4 23316.7 23377.8 4177.06 15094.7 -217.341 -8034.54 -4326.71 -11018.1 
288486 44492.2 127333 135744 112813 184465 205678 213856 284652 315014 400210 419315 432778 494053 472579 529080 534632 519075 575999 567699 623195 622728 590026 479192 247778 348844 396893 352842 324185 258747 275447 218354 164919 161535 111817 143783 108812 81889.3 87183.9 49444.2 103889 77283.9 55454.2 56762.5 3532.91 35797.5 -8530.59 -27982.8 -15224.7 -35662.7 
120888 19772.3 55086.1 58534.1 48897.7 78277.3 86474.6 88666.9 116608 127942 161844 168533 172814 196901 186788 209139 210858 203693 226982 224171 248734 251484 242135 201548 109931 153760 174041 156178 145055 118295 125210 101607 79218.2 77308.2 55883.4 68195.9 52770.1 40238.7 41152.4 24639.6 46330.1 34722.1 25228 25571.7 3227.98 16451.1 -1791.76 -10325.4 -5382.07 -13593.4 
-192967 -29528.2 -84386.9 -90002.1 -74161.2 -122190 -136645 -143261 -192645 -214329 -272794 -286426 -296418 -338809 -325126 -364130 -368539 -359879 -400666 -396866 -435200 -433895 -408265 -326975 -164863 -230748 -263308 -233082 -211940 -166352 -176423 -136343 -99212.2 -96313 -62807.2 -84293.3 -60909.6 -43740.7 -48490.9 -24047.4 -61971.9 -44722.1 -30658.8 -31700.6 3830.61 -18252.6 11991.5 24747.2 15928.1 30513.5 
-70020.6 -10955 -31030.7 -33146.1 -27509.1 -44924.3 -50124.3 -52349.3 -69939.2 -77523 -98394 -103069 -106398 -121385 -116082 -129802 -131095 -127570 -141924 -140351 -154267 -154229 -145798 -117604 -60076 -84531.4 -96562.6 -85947.1 -78741.2 -62519 -66323.6 -52039.9 -38750.3 -37750.2 -25530.9 -33146.1 -24498.8 -17975.8 -19388.5 -10291.6 -23701.9 -17236.5 -11941.5 -12209.3 748.113 -7157.86 3778.53 8552.62 5470.94 10652.6 
10337.9 2803.33 5599.63 6190.7 4826.96 7170.08 8113.22 9675.92 14269.8 16383.9 20020.9 20595.5 21124.9 23694 22507.3 24686.2 24681.4 25562.7 30667.4 33261.3 37904.6 38473.2 34696.2 24240.4 9437.2 11921.4 15008.3 13366.6 10260.1 6058.03 5355.03 954.587 -3002.58 -4549.25 -7152.48 -6976.67 -9079.82 -10035.6 -9440.85 -10385.9 -7195.08 -7896.16 -8357.51 -8611.61 -10479.2 -8860.48 -11290.4 -12009.2 -11610 -13835.7 
150173 22474.4 65468.2 69712.6 57890.9 95379.3 106448 110488 147030 162810 207430 217738 225061 257248 246490 276204 279419 271197 300223 295038 323029 322141 305090 248036 128158 180845 205437 182358 167897 134149 143126 113943 86677.3 85435.5 59875.3 77051.6 59282.9 45589.6 48610.8 29041.9 57270.6 43451.1 32057.8 32919.7 5178.96 21877.5 -1039.33 -11144 -4439.28 -14689.6 
-133906 -20213.5 -59140.2 -62908.1 -53097.9 -86363.3 -95902.4 -98047.9 -127994 -140371 -178316 -186626 -192129 -219231 -209114 -234370 -236526 -226892 -248934 -241562 -264164 -263848 -252913 -211257 -114147 -162724 -183475 -163440 -152735 -125026 -134517 -111089 -88764.2 -88575.7 -66347.5 -81815.7 -66281.3 -53248.1 -54503.4 -36179.9 -59577.5 -46882.8 -36401.4 -37277.7 -12823.9 -27367.6 -8129.36 602.239 -5503.56 2095.61 
-12387.4 -2114.87 -6013.67 -6367.79 -5480.11 -8456.23 -9171.74 -9022.68 -11271.6 -11953.2 -14882 -15204.1 -15310.6 -17347 -15993.5 -17843.3 -17735.5 -16454.9 -18106.8 -17450.2 -19896.8 -20857 -21377.4 -19659.3 -12612.2 -17766.7 -19815.8 -18365 -17943.2 -15725 -16742.3 -14855.8 -12982 -13004.8 -10806.2 -11873.9 -10093.4 -8318.85 -7894.31 -5861.32 -7525.88 -6003.47 -4728.27 -4551.38 -2023.28 -3090.87 -1221.4 -0.148273 -244.937 372.516 
62174.8 9932.85 27709.5 29460.3 24210.6 39404.2 43822.4 45692 61341.5 68070.7 86482.1 90523.7 93409.9 106744 102076 114428 115809 113197 126771 126269 139440 139983 132629 107224 55555.3 76884 87433 77674.5 70674.7 55820.7 58764.3 45533.1 33226.8 31907.6 20821.9 27329.9 19506 13673.8 14944.8 6990.47 19128.4 13556.2 9057.31 9373.81 -2034.61 5089.9 -4624.35 -8778.31 -6008.45 -10783.6 
-66666.8 -9307.65 -29037.5 -30545.1 -25847 -42322.3 -46605.3 -46279 -59220.5 -64233.8 -82203.1 -86046 -88455.7 -101425 -96452.3 -108731 -109989 -104289 -113403 -108321 -118618 -119411 -117424 -103061 -60570.4 -85950 -95268.5 -85412.8 -81746.7 -69227.4 -74660.9 -64539.2 -54740.7 -55487 -44704.8 -52663 -45142.5 -38115.3 -38044.1 -28420.2 -38878.6 -32134.8 -26508.1 -27000.3 -14523.9 -21201.8 -12109.4 -7375.55 -10167 -7484.57 
