-81420.6 -33692.4 -39843.4 -53679.4 -54084.5 -75484.5 -79485.1 -95201.1 -99795.2 -89904.2 -109539 -111575 -125750 -135629 -129989 -149325 -142565 -154034 -155968 -132845 -134662 -122944 -138658 -124839 -57950 -97423.3 -118472 -107103 -101943 -85055.5 -83581.7 -64227.7 -52916.7 -59915.7 -55206.9 -69036.5 -56508.7 -59157.7 -57890.3 -55184 -62270.8 -49227 -28990.3 -10059.3 6303.95 -1144.84 -12342.3 -5298.22 -5445.82 -11511.9 
49055.3 19341.4 23145.8 32994.3 33100.8 47183.7 48995.4 58892.9 63050 57375.8 71140.8 72495.4 81957.4 89570.5 86685.9 101248 98819.9 108399 112802 99876.6 102479 93693.1 99378.3 82646.2 31184.8 53320.4 66896.6 61059.6 58667.9 48176.5 48361.9 35402 28375.7 33084.4 29342.7 38281.2 29592.7 31303.9 31031.6 28444.6 33518.7 25077.8 13607.2 2899.63 -7534.35 -1942.94 3761.71 -770.131 59.9131 3485.17 
-8312.93 -3916.41 -4718.13 -5187.32 -5639.54 -7413.25 -8412.26 -9826.19 -9481.94 -8422.08 -9205.13 -9271.03 -10139.6 -10013.3 -9130.81 -8976.68 -6916.64 -5894.22 -3121.07 906.476 2647.34 3229.1 -877.435 -5647.68 -7319.04 -13098.5 -14847.8 -13179.9 -12430.1 -11201.1 -10619.5 -9672.42 -8476.72 -8806.25 -9009.41 -10129.1 -9781.73 -10074.3 -9646 -10246.3 -10512.2 -9619.58 -6944.1 -4475.44 -3007.25 -2840.37 -5005.27 -4630.87 -4269.8 -4980.58 
108032 42578.2 50624.6 73202 72897.5 103938 107264 128991 138706 126192 157424 160477 181525 199101 192975 226972 222805 245783 258624 232467 240699 221251 231425 188703 67267.4 113741 143754 131290 125953 102125 102606 73097.7 57997.1 68854.6 60068.7 79973.4 59968.9 63678 63390.6 56571.7 67939.8 48943.8 24594.3 1739.49 -21067.1 -7495.59 4031.68 -6333.34 -4329.04 2987.52 
42689.7 17584.9 20954.3 29137.1 29408.9 41095.4 42960.5 51267.5 54246.5 49294.4 60381.1 61357.9 68817.6 74464 71823.1 83219.4 80080.5 86793.8 89109.5 77434.8 79140.6 72213.6 78608.6 67569.2 27667 47388.4 58729 53236.2 50608.9 41379.4 40926.3 30219.3 24417.8 28519.3 25869 33479.2 26532.3 28041.3 27645.3 25490.1 29296.5 22237.7 12363.4 2973 -5627.57 -779.063 4904.24 1131.65 1459.14 4338.94 
-73313.6 -30453.6 -36265.5 -48373 -49214.6 -68626 -72661.6 -86757.3 -90569.6 -81705.2 -98836.7 -100586 -113121 -121448 -116241 -132517 -125495 -134330 -133966 -111571 -111546 -100803 -116037 -106971 -51578.2 -88440.5 -107403 -97130.6 -92631.5 -77862.7 -76493.6 -59681.4 -49413.7 -55524.5 -51680 -64098 -53388 -55887.9 -54687.3 -52856.9 -59080.4 -47557.8 -28931.5 -11621.9 3090.78 -3106.23 -13976.7 -7967.92 -8015.52 -13416.5 
-65446.5 -24978.1 -30202.5 -47491.8 -47169 -67910.2 -68728.8 -82355.4 -90822.1 -84098.5 -106622 -108279 -121707 -134876 -132402 -158697 -158709 -176871 -191144 -177822 -186549 -171690 -170033 -127102 -31382.6 -55267.3 -74782.2 -69126.6 -66442.4 -50611.2 -52509.3 -32053.4 -23125.4 -31259.7 -24728.1 -38165.2 -24075.5 -26656.1 -27499.5 -20460.4 -28138.2 -15594.2 -3552.49 8265.48 22528.6 10836.3 5369.11 12211.5 9820.58 6337.74 
19025.6 8445.37 10050.7 12919.2 13351.9 18054.9 19371.9 22820.3 23367.3 21114.1 24914.2 25184.6 27828.3 29229.3 27790.1 31006.1 28347.3 29325.2 27909.4 21537.9 20899.6 18521.8 23540.4 23937.6 13478.2 23512.4 28096.4 25151.8 23618.7 19781.6 19052.3 15168.3 12695.5 14271.3 13754.9 16885.5 14615.4 15301.5 14874.4 14515 15681.6 12933.9 8190.02 3637.17 137.606 1709.3 5149.76 3747.11 3488.42 4788.68 
-32681.1 -12852.8 -15103.5 -21628 -21278.8 -30330 -31287 -37928 -40751.9 -36874.5 -46202.6 -47199.5 -53623.8 -58954.2 -57063.2 -67240.1 -66224.1 -73554.3 -77766.6 -70327 -73201.5 -67842.2 -71456.7 -58941.6 -22452 -36415.2 -45287 -41190.5 -39338.7 -32035.6 -32014.3 -23070.9 -18428.3 -21602.9 -18893.7 -24738.3 -18632.8 -19633 -19384.9 -17372.8 -20798.8 -15091.2 -7569.28 -454.164 6477.66 2604.69 -669.688 2598.11 2084.55 -366.511 
9857.38 3915.38 4785.62 7198.96 7283.71 10299 10602.9 12644.6 13741.9 12787.3 15897.5 16063.8 17847.9 19496.7 19101.2 22520.5 22144.9 24293 25665.4 23167.3 23965.6 21868.3 22267.3 17351.3 5124.14 9158.28 11951.5 10914.3 10349.1 8035.38 8222.94 5406.26 4031.27 5194.17 4438.73 6409.9 4561.01 4963.8 4988.38 4084.41 5066.08 3324.13 1453.08 -461.503 -2569.78 -982.859 175.806 -781.034 -523.311 28.1333 
-106546 -43223.9 -50769.5 -70244.3 -69766.9 -98115.9 -102240 -123217 -130556 -117640 -145394 -148371 -167965 -182910 -176041 -205022 -198888 -218242 -226460 -199705 -205963 -190108 -206772 -178047 -75587.8 -123987 -151991 -137655 -131018 -107938 -106628 -79453 -64631.7 -74351.4 -66916.8 -85349.5 -67247 -70540.1 -69228.4 -64149.9 -74208.2 -56411.7 -30904 -6873.82 14943.9 3778.23 -8812.73 1191.36 444.932 -7594.26 
-99370.7 -37158.6 -44545.4 -69099.4 -68120.5 -99217.5 -100499 -121288 -133545 -122575 -156002 -159111 -180626 -200901 -196459 -235216 -235694 -263800 -284650 -264357 -276894 -255327 -255051 -193896 -52943.9 -90659.9 -120287 -111299 -107950 -84920.1 -87706.3 -57139.3 -43063.2 -54413.9 -44007.7 -63745.2 -42304.9 -45904.5 -46891.4 -37830.9 -50160.7 -31133.8 -10854.6 8142.28 30220.5 14605.7 7003.93 17398.4 13845.2 7791.85 
-60198.5 -22548.9 -27024 -42266.8 -41608.2 -60519 -61122.7 -73668 -81255.4 -74614.6 -95125.3 -97006.4 -110074 -122555 -119956 -143992 -144482 -161838 -175191 -163391 -171566 -158342 -157428 -118732 -31122.8 -53407.3 -71471.1 -66224.8 -64206 -50019.8 -51706.9 -32908.6 -24531.7 -31607.7 -25204.6 -37270 -24074.3 -26281.5 -26999.4 -21149.8 -28634.7 -16970.5 -4985.23 6255.59 19552.9 9652.69 5217.5 11559.6 9345.31 5809.18 
-76439.5 -29580.8 -35460.8 -52660.6 -52505.1 -75445 -77429.2 -93040.7 -100925 -92348.4 -115812 -117968 -133368 -146866 -142925 -168994 -166965 -184743 -195824 -177743 -184412 -169230 -173571 -137425 -43844.6 -75615 -97532.3 -89558.2 -86322.6 -69238.9 -70369.1 -48621.9 -37865 -45990.7 -39243 -53845.1 -38975.3 -41746.8 -41949.7 -36364.7 -44903.8 -31058.1 -14502.1 1030.91 17497.9 6934.47 -685.533 6758.32 4791.72 -53.0412 
-97338.8 -39506.2 -46243.8 -63479 -62952.3 -88549.6 -92428.9 -111574 -117962 -106029 -130965 -133759 -151647 -165068 -158605 -184428 -178704 -196149 -203109 -178576 -184001 -170010 -186227 -161931 -70770.9 -115399 -140758 -127349 -121212 -100333 -98968.1 -74440 -60824.6 -69443.7 -62711.4 -79336.2 -62968.3 -65887.9 -64552.2 -60326.4 -69486.4 -53364.4 -29659.7 -7381.21 12538.7 2857.14 -8662.72 489.077 -39.6887 -7590.67 
-51091.1 -19983.1 -23873.3 -34935.3 -34852.1 -49894.8 -51363.4 -61685.6 -66605.2 -60784.8 -75970.5 -77385.3 -87487.2 -96116.3 -93319.5 -109982 -108247 -119504 -126078 -113717 -117755 -108041 -111917 -89933.2 -30279.2 -51974.8 -66410.2 -60838.3 -58557.4 -47294.9 -47830.1 -33643.9 -26474.4 -31739.9 -27428 -37027 -27365.6 -29180.4 -29194.9 -25768.5 -31316.1 -22210.2 -10905.4 -324.493 10571.1 3878 -1423.19 3487.69 2353.19 -958.542 
58684.5 24355 28706.8 38626.9 38808.9 54032.7 56879.2 68198.2 71443.3 64305.3 78407.3 79881.4 90010.7 97079.4 93021 106955 102164 110562 112198 95861.6 97468.3 89267.4 100727 90746.9 42434.7 70679.7 85713.5 77368.1 73460.5 61174.1 60000.6 46024.5 37908.7 42955.9 39572.9 49490.1 40443.5 42309 41350.6 39317 44346.5 34974.9 20462.2 6784.59 -4957.05 459.345 8453.13 3289.09 3312.42 7761.02 
-32047 -13567.8 -15945.7 -19962.9 -20312.3 -28102.3 -30246.6 -36272.7 -37085.6 -32924.1 -39214.9 -40047.5 -45320.5 -48144.8 -45446 -50657.9 -46831.5 -49424.2 -47217 -36694 -35533.7 -31965.7 -41298.8 -42996.3 -26095.6 -43591.4 -51386.6 -46207.4 -44027.4 -38039.8 -36920 -30423 -25823.9 -27943.8 -26635.9 -31572.2 -27521.5 -28470.9 -27565.9 -27742.9 -30218.6 -25534.9 -16473.3 -8203.4 -1892.42 -3382.85 -8558.12 -6081.37 -5710.03 -8428.73 
79964.2 32405.1 37637 51559.3 50690.9 71298.8 74273.7 90040.2 95229.8 85270.5 105759 108180 123029 134244 128893 150333 146169 161341 168076 148989 154421 143573 157113 136559 60436.1 96553 117174 105869 100585 83217 81900 61547.5 50354.4 57364.1 51634.1 65101.4 51405.8 53638.8 52410.4 48822.6 56397.4 43104 23559.9 5149.9 -11214.6 -3350.6 5603.73 -2147.9 -1797.34 4653.69 
219007 87190.7 103124 146966 146010 207140 214358 258163 276354 250628 311940 318091 359899 393954 381035 447039 437505 482320 505963 452855 468863 432045 457250 379215 143938 239506 299075 272181 260121 211884 211573 152929 122332 143696 126682 166158 126608 133797 132404 119488 141685 103832 53612.3 6231.14 -39556.9 -13477.6 10514.9 -10526.1 -7359.76 8173.2 
92745.5 37318.5 43762 61188.3 60554.9 85512.3 88789.8 107164 114030 102835 127691 130362 147752 161409 155572 181959 177413 195525 204308 181886 188330 174141 187214 158765 64898.6 106073 130661 118483 112896 92626.2 91814.1 67626.2 54709 63336.8 56455.5 72668.9 56388.2 59239.8 58279.3 53440.2 62503.2 46783.9 24895.5 4260.37 -14875.9 -4698.08 5654.39 -3258.13 -2380.54 4562.59 
-146186 -57484.8 -68286 -99103 -98409.5 -140329 -144592 -174143 -187557 -170670 -213353 -217508 -246129 -270294 -262178 -308937 -303913 -336023 -354706 -320159 -332265 -306043 -319235 -259293 -91904.6 -154089 -194695 -177757 -170322 -137728 -138433 -98080.5 -77587.9 -92420.5 -80323.8 -107291 -79883.5 -84828.8 -84394.8 -74738.7 -90189.5 -64369.8 -31692 -859.591 30118.2 11468.3 -3713.04 10539.8 7756.23 -2263.66 
-53373.8 -21078.4 -24980.8 -35989.8 -35704.3 -50821.7 -52431.4 -63178.5 -67894.5 -61670 -77008.6 -78524.6 -88904.3 -97558 -94511 -111225 -109263 -120768 -127272 -114615 -118915 -109624 -114972 -94131.1 -34350 -57253.2 -71958.4 -65613.9 -62814.2 -50971 -51101.2 -36516.8 -29031.4 -34352.5 -30012.4 -39755.7 -29865 -31631.8 -31391.1 -28011.5 -33579.9 -24220 -12149.6 -770.058 10498.9 3902.69 -1694.16 3503.3 2584.51 -1147.28 
8173.93 2692.25 3329.05 6519.01 6259.71 9375.47 9022.38 10966.6 12882.7 12264.1 16311.1 16547 18612.8 21237 21314 26564.4 27697.1 31818.2 36113.7 35594.5 38173.4 35501.8 32859.5 21709.8 2029.38 3523.47 6346.74 6128.98 5942.7 3506 4273.51 799.52 -344.582 1085.21 -263.097 1780.41 -742.998 -387.009 -13.7155 -1779.89 -460.19 -2378.24 -3146.27 -4097.84 -6125.64 -3702.84 -3753.74 -4900.7 -4217.3 -3919.34 
114054 45398.9 53698.5 76291.5 75865 107717 111565 134322 143651 130165 161870 165104 186929 204550 197694 231682 226516 249502 261228 233217 241109 221969 235495 196002 75010.4 125191 156233 142237 136121 111228 111052 80714.9 64756.6 75749.2 66926.8 87422.8 66950.4 70696.6 69963.8 63539.5 75137.2 55462.6 29033.3 4247.26 -19595.2 -6313.6 6277.2 -4582.94 -2958.28 5136.7 
-100683 -41247.7 -48547.6 -66528.8 -66412.7 -93010.4 -97276.2 -116923 -123373 -111161 -136647 -139331 -157393 -170761 -164116 -190250 -183474 -200196 -206065 -179700 -184412 -169680 -186756 -163219 -71457.2 -118182 -144438 -130679 -124263 -102681 -101139 -76077.3 -62156 -71212.1 -64677.5 -81982.8 -65475.7 -68651 -67296.6 -62920.3 -72076.3 -55512.5 -31180.7 -8273.48 12124.3 1926.78 -10717.6 -1532.76 -2011.58 -9539.72 
-9621.42 -3967.32 -4595.25 -5955.61 -5854.99 -8112.09 -8599.83 -10526.7 -10950.1 -9756.35 -11938.8 -12206.8 -13859.1 -14960.5 -14265.7 -16333.2 -15642.5 -17170.3 -17440 -14889 -15215.6 -14227.4 -16655.1 -15706.1 -8558.21 -13298.1 -15595.3 -13949.8 -13123.9 -11104.9 -10828.9 -8602.06 -7161.68 -7868.27 -7324.16 -8820.64 -7377.39 -7603.51 -7296.96 -7071.03 -7860.15 -6401.41 -3876.83 -1425.27 563.26 -63.3033 -1309.34 -375.07 -295.685 -1227.49 
47241 18603.4 22010.5 31847.4 31528.4 44922.3 46282.3 55823.1 60081.6 54574.7 68286.6 69660 78905.8 86685.3 84032.2 99069 97497.7 107948 114084 103132 107209 98961.7 103439 84300.7 30405.8 50436.8 63468.2 57879 55382.7 44804.6 44927.9 31895.4 25287.7 30045 26128.4 34769.8 25904 27458.8 27268.2 24163 29130.2 20800.3 10190.5 171.502 -9807.25 -3837.98 1000.6 -3644.42 -2794.94 510.707 
-50226.4 -20859.6 -24362.1 -31936 -31887.7 -44366.4 -46946.7 -56625.7 -58881.7 -52492.3 -63864.8 -65269.6 -74019.5 -79748.6 -75994.2 -86886.4 -82618.3 -89484.2 -90047.9 -75992 -76993.2 -70888.4 -82470.4 -77170.3 -39724.9 -64647.1 -77194 -69518.3 -66020.9 -55743.7 -54369.1 -42822.2 -35735.6 -39648.7 -36844 -44934.4 -37437.7 -38870.3 -37751.7 -36648.5 -40903.3 -33051.8 -19893.8 -7644.32 2411.62 -1316.13 -8169.37 -3754.85 -3541.65 -7726.06 
