-111601 -31621 -57051.5 -52997.7 -70187.2 -80386.4 -94607.2 -96567.8 -111068 -118747 -123155 -140737 -147030 -159868 -160649 -168879 -178358 -171862 -170731 -176302 -190211 -200083 -187326 -132727 -61406.8 -103080 -124428 -117243 -119305 -107148 -100549 -92954.1 -74719 -79297.8 -66233.9 -66654.9 -65798.6 -54959.5 -56744.1 -44303.7 -39050.4 -42624.8 -37368.5 -37710.2 -31784 -33467.6 -33557 -16178.2 -16992.4 -29488.5 
67962.5 20185.8 35428.8 32849.5 43139.1 48893.6 57117.1 58722.4 68526.9 74101.3 77895.5 90382.4 95704.7 105144 106690 112982 120765 118989 120963 127000 136060 140190 127355 86228.3 35114.5 57948.6 70679.7 66517.9 68434.5 60506.2 55716.4 49738.5 37497.6 40114.2 32185 33033.4 33573.6 27488.7 28688.4 21373.9 18102.7 20245.2 16892.6 17444.1 14151 15612.2 16053.2 5610.93 6156.81 13885.8 
-10688.9 -944.36 -3965.34 -3800.3 -5917.39 -7761.55 -10047.7 -10146 -11377.1 -12329.2 -12596.2 -13423.2 -13675.8 -14311.3 -14057.6 -14059.1 -13230.2 -10510.5 -7675.24 -4556.39 -3879.27 -4757.54 -6184.45 -5736.77 -3912.63 -10026.9 -12839.7 -12356.4 -12252.6 -11964.9 -12258.9 -13310 -13048.9 -14212.1 -13685.9 -13900.1 -13311.2 -12135.2 -12572.4 -11120.7 -10725.6 -11121.8 -10926.2 -10770 -9796.4 -9588.63 -9339.97 -7499.54 -7694.22 -9014.03 
151108 49242.9 82038.2 76107.9 98130.5 109635 126483 130109 151527 162874 170803 198760 210110 230762 233819 248032 266663 264666 271796 289492 312079 321854 291323 196410 79230.4 127465 154601 145169 149821 131289 119676 104328 75567.8 80370.4 61841.8 63274.6 64959.8 51520.9 53541.4 37728.5 30339.8 34907.8 26978.5 28320.9 21610.7 25280.6 26625.9 3991.54 5054.84 21808.8 
60224.1 19460.1 32640.4 30529.9 39469.3 44576 51769.4 53144.8 61201.2 65361 67919.4 77999.2 81878.9 89176.1 89733.1 94370.7 100068 97256 97444 101348 108430 112201 102461 69568.7 28205.6 48842.6 59893.7 56198.5 57730.9 51024.3 47233.8 42575 32553.6 35108.2 28453.4 29161.6 29561 24146.8 24933.1 18678.6 15969.3 17941.7 15121.8 15531.4 12603.8 13767.9 14236.5 5400 5992.41 12774.6 
-100175 -26372.4 -49762.7 -46325.4 -62193.6 -72189.4 -85930.8 -87887 -101275 -108948 -113309 -129058 -135162 -146891 -147748 -154839 -162295 -154978 -151861 -153582 -163698 -171314 -160297 -112955 -51040.1 -89656.3 -109517 -103314 -105059 -94954.5 -89826.1 -84445.8 -69305.4 -74244.3 -63419.1 -64352.1 -63581.3 -54024.5 -56082 -44847.3 -40293.5 -43633.9 -39304.1 -39618.8 -33972.2 -35336.1 -35424 -19747.2 -20707.4 -32297.2 
-96786.1 -39481.1 -58664.1 -54976.1 -67908.2 -73629.1 -82442.1 -85697.4 -100347 -107802 -113785 -134094 -143162 -158010 -160793 -171128 -185923 -188182 -197155 -213551 -228070 -229580 -199524 -124756 -37236.1 -61296.2 -77142.6 -71834.6 -76484.4 -63736.8 -54955.5 -42489.4 -22633.8 -25553.7 -14568.9 -16937 -20888.6 -13633.6 -14249.6 -5437.32 -883.858 -3730.57 1626.01 33.1546 3283.59 17.9381 -2094.62 10791.9 9786.73 -759.159 
26782.5 8025.25 14103.7 13359.7 17530.2 20317.3 24038 24568 27780.9 29426.5 30128.7 33663.7 34803.7 37225.8 36927.7 38127.1 39115.2 36090.8 33893.3 32853.3 34447.4 36186.4 34202.4 24007 10323.3 20967.8 26244.1 24708.9 25124.7 22799.6 21855.3 21112.9 17886.7 19545.4 17157.3 17543.8 17362.2 14853 15251.8 12404.6 11334 12266.6 11255.7 11287.3 9737.26 9982.26 10061 6191.33 6559.47 9607.26 
-45291.6 -14525.6 -24285.1 -22322 -28833.2 -32005 -36748.7 -37518 -43568.7 -46487.2 -48491.5 -56658.8 -59684.1 -65761.1 -66647.2 -71076.6 -77118.5 -77055.4 -79899.2 -86535.5 -94827.5 -99262.2 -91374.5 -63846.4 -29035.1 -43716.3 -51524.9 -48249.3 -49282.5 -43190.2 -39341.7 -34193.6 -25000.5 -26014.4 -19786.9 -19692.2 -19800 -15457.4 -15911.4 -11046.2 -8771.99 -10205.2 -7743.38 -8092.43 -6096.46 -7134.98 -7332.49 -285.496 -425.528 -5358.13 
14697.7 5712.49 8695.33 8205.79 10255 11309.8 12812.7 13261.8 15387.6 16497 17301.9 20152.7 21449.9 23563.4 23916.1 25277.3 27096.4 26898.5 27515.4 29041.4 30639.3 30738.2 26763.8 16653.4 4701.23 8753.14 11255.2 10469.7 11067.7 9308.24 8198.6 6790.41 4247.02 4955.22 3584.75 4058.38 4613.16 3499.62 3607.1 2257.79 1638.26 2137.95 1451.82 1668.01 1070.86 1444.72 1705.1 -254.574 -60.6488 1572.23 
-146664 -45113.8 -77450.4 -71591.7 -93317.4 -104918 -121633 -124023 -142939 -152099 -157757 -182073 -190444 -208096 -209591 -221901 -237782 -233446 -237519 -252732 -276200 -290893 -270821 -191665 -89515.2 -140801 -167239 -157092 -160079 -142034 -131330 -117690 -90539.1 -94814.1 -75684.6 -75371 -74707.6 -60344.6 -61991.1 -45909.6 -38705.2 -43290.7 -35661.2 -36326.4 -29258.9 -32001.7 -32293.3 -9486.7 -10121.7 -26099.1 
-141414 -50905.8 -80395.7 -74485.8 -94133.7 -103092 -116974 -121232 -143054 -154902 -164354 -194223 -207536 -229876 -234653 -250669 -272967 -276871 -290956 -315781 -339747 -345417 -305108 -197672 -69837.2 -108108 -132398 -124141 -130296 -111456 -98405 -79993.6 -49743.4 -53168.2 -35325.2 -37582.3 -41596.7 -30122.8 -31812.9 -17734.9 -10503.7 -14410.2 -6240.56 -8232.14 -3057.4 -7668.79 -9922.15 10557.6 9571.38 -5921.63 
-86410.7 -32460.2 -50178.9 -46572.5 -58364.1 -63560 -71719.2 -74417.9 -87705.2 -94725.6 -100391 -118729 -126826 -140405 -143191 -152952 -166792 -169519 -178590 -194498 -209350 -212597 -187182 -120534 -41572.2 -64223.4 -78771.9 -73735.7 -77644.2 -65997.9 -57873.2 -46194.6 -27445.4 -29365.5 -18378.3 -19746.7 -22432.7 -15528.5 -16410.6 -8005.54 -3619.04 -5991.59 -933.506 -2214.67 784.874 -2173.14 -3739.82 8508.86 7869.59 -1573.66 
-108100 -36396.5 -59604.9 -55376.1 -70945 -78936.7 -90763.6 -93783.1 -109861 -118734 -125258 -146477 -155765 -171645 -174531 -185399 -199770 -199483 -205921 -219565 -235175 -240017 -214101 -140594 -51700.5 -84213 -103519 -97138.7 -101058 -87738.9 -79126.1 -67558.1 -46624.4 -50222.2 -37457.3 -39206.7 -41397.4 -32330.6 -33886.7 -22887.1 -17634.1 -20867.5 -15186.6 -16443.2 -11892.7 -14858.1 -16231.9 -391.454 -1321.92 -13429.6 
-132880 -39654.6 -69201.1 -63819 -83657.6 -94298 -109615 -111584 -128551 -136741 -141708 -163418 -170649 -186401 -187656 -198765 -212999 -208864 -212351 -226066 -247913 -262308 -245719 -175788 -84620.5 -132036 -156152 -146787 -149248 -132853 -123182 -110951 -86287.8 -90021.6 -72322.3 -71690.4 -70602.8 -57317.4 -58870.3 -44050.7 -37422.7 -41554.3 -34594.4 -35060.8 -28523.1 -30870.4 -30881.2 -9866.61 -10300.8 -24717.5 
-71776.2 -23682.4 -39228.6 -36458.7 -46889.9 -52357.8 -60367.3 -62260.3 -72740.3 -78497.1 -82626.5 -96241.6 -102011 -112106 -113757 -120642 -129596 -128816 -132429 -140741 -150938 -154633 -138751 -91927.5 -34845.3 -57213.5 -70269.5 -66117.5 -68651.8 -60043.4 -54557.1 -47322.8 -33747.6 -36189.5 -27730.5 -28754.9 -29892 -23727.5 -24762 -17303.5 -13771.4 -15846.1 -12053.4 -12758.8 -9643.42 -11479.4 -12236.8 -1625.55 -2197.56 -10131.8 
80423.5 23347.4 41531.5 38596.5 50920.7 58089.5 68091.5 69405.9 79625.2 84782.1 87677.2 100175 104386 113373 113749 119624 126561 122055 121522 126240 136897 144556 135748 96786.5 45618.3 75559.9 90720 85422.3 86875.5 77886.5 72965.1 67210.1 53844.8 56938.4 47261.5 47347.6 46651.3 38729.7 39834 30881.1 27067.1 29642.8 25763.2 25956.8 21720.4 22895.6 22903 10370.2 10865.4 19753.6 
-41902 -8198.76 -18614.2 -17108.1 -24132.7 -28844.5 -35226 -35638.4 -40834.3 -43912.4 -45371.3 -51030.8 -52867.1 -57155.1 -57227.8 -59772.6 -61903.2 -57671.5 -54941.9 -54058.7 -58493.9 -63587.3 -62913.9 -48222.9 -26827.2 -45426.8 -54279.1 -51425.4 -51538.8 -47572 -45841 -44489.2 -38618.9 -40688.4 -35799.8 -35619.3 -34212.1 -29685.4 -30752.4 -25538.2 -23539.9 -24933 -23186.8 -23043.1 -20325.3 -20547.4 -20081.2 -12922.4 -13176.1 -18008.8 
108643 32807.7 56749.5 52096.9 68098.1 76258.2 88184.6 89421 102792 108735 112277 129762 135057 147649 148515 157806 170159 167753 171992 185635 205888 219712 207460 150851 76107.2 114816 134033 125876 127592 113428 104907 93878.5 72695.5 74977.2 59452 58152.4 56785.6 45520 46488.9 34231 28665.6 32009.5 26050.3 26341.6 21123.8 23036.6 22826.1 5401.62 5486.03 17022 
304873 98351.2 164608 152491 196998 220137 253884 260189 301729 322762 336949 391192 411854 451618 456629 484334 520772 515634 528832 564602 612453 636690 582167 399815 171266 271347 325792 305874 314120 276233 252813 222173 164235 173327 134763 136164 137870 109658 113210 80785 65809.8 75130.3 59038.1 61267 47452 54239.3 56135.3 9857.72 11580.4 44953.7 
127790 40216.1 68137.5 62918.9 81631.3 91319 105452 107599 124237 132221 137338 159000 166502 182207 183724 194894 209614 206932 211942 227057 248500 261232 242222 170537 78732.2 122335 145097 136266 139114 123016 113221 100482 76089.6 79474.4 62496 62192.3 61890.7 49465.7 50798 36868.4 30482.7 34377.9 27531.4 28190.3 22240 24814 25169.1 5351.56 5820.66 19608.3 
-204904 -67796.8 -111927 -103738 -133363 -148444 -170645 -175346 -204112 -218981 -229449 -267456 -282688 -310766 -314970 -334560 -360659 -358990 -370016 -396121 -428316 -442431 -400832 -271093 -110771 -175413 -211663 -198563 -204789 -178984 -162663 -140944 -101180 -107236 -81574.6 -83190.4 -85480.9 -67108.6 -69536.3 -48136 -38079.4 -44318.8 -33409.4 -35259.7 -26321.4 -31329.6 -33096.2 -2375.86 -3675.43 -26237.8 
-74492.3 -24362.8 -40473.6 -37490.2 -48308.5 -53831 -61932.4 -63537.7 -73849.2 -79123.6 -82785.6 -96346.5 -101630 -111598 -112987 -119972 -129242 -128431 -132245 -141603 -153483 -159089 -144798 -98702.8 -41370.3 -65295.1 -78560.6 -73788.8 -75992 -66652.8 -60777 -53015.5 -38622.7 -40774.8 -31337.5 -31766.3 -32373.5 -25562 -26412.6 -18519.5 -14818.3 -17042.2 -13027.8 -13615.4 -10317 -12051.6 -12574.1 -1310.69 -1726.82 -9849.65 
13144.6 7309.44 9412.49 8826.14 10246.9 10395.7 10865.8 11443.5 13652 14611.1 15658.6 19231.4 20947 23578.6 24331.1 26383.1 29743.9 31644.4 34888.6 39690.9 42725.3 42299.6 35390.7 20781.4 4482.24 5744.12 7304.66 6561.7 7552.68 5191.1 3291.34 359.103 -3267.46 -3211.75 -4905.72 -4433.41 -3227.83 -3975.67 -4128.37 -5044.07 -5686.49 -5309.06 -6214.78 -5804.48 -5931.51 -5226.89 -4694.71 -6200.25 -6097.16 -4766.72 
158183 50000.7 84640.5 78359.5 101600 113865 131716 135015 156711 167931 175479 203575 214364 235012 237652 251962 270543 267482 273837 291544 315929 328451 300605 206643 88738.7 141273 169878 159663 163934 144572 132666 117179 87364.8 92210.8 72294.6 73057.8 73771.7 59115.7 61156 44191.8 36378 41153 32830.5 33938.7 26669.2 30155.7 31075.3 6936.09 7847.29 25218.8 
-138841 -42147.6 -72952.2 -67578.6 -88313.6 -99774.8 -116111 -118438 -136267 -145041 -150266 -172795 -180579 -196917 -198058 -209124 -223012 -217517 -219504 -231396 -251897 -265243 -247349 -175061 -81397.6 -130899 -156267 -146818 -149506 -133042 -123571 -111775 -87128 -91731.4 -74274.7 -74245.6 -73531.8 -60001.6 -61709.8 -46514.2 -39853.1 -44285.4 -37341.5 -37933.1 -31056.4 -33512.4 -33807.2 -12332.5 -13103.3 -28398 
-12677.5 -3181.23 -6115.6 -5583.23 -7589.3 -8667.68 -10146.2 -10117.1 -11492.4 -12046.2 -12283.4 -14046.9 -14429.9 -15717.6 -15751.9 -16737.9 -17959.9 -17397.9 -17542.5 -18824.2 -21330.3 -23501.4 -23164.4 -17995.4 -10507.9 -15630.4 -17958.6 -16919.1 -16948.5 -15268.6 -14323.2 -13282.1 -10967.3 -11267.4 -9399.63 -9108.47 -8686.47 -7196.73 -7278.33 -5701.03 -5039.92 -5468.32 -4790.87 -4734.82 -4006.72 -4063.32 -3842.27 -1618.03 -1558.53 -2856.18 
66089.7 21934.7 36115.9 33412.1 42912.6 47657.7 54696.9 56111.3 65227.1 69797.9 72997.6 85139.5 89863.7 98816.6 100104 106438 114988 114618 118408 127327 138275 143397 130479 89065 37581.4 58490.9 70031.3 65627.5 67497.3 58977 53578 46338.4 33289.1 35056.2 26506.6 26812.3 27404.9 21370.4 22086 15166.9 11910 13944.1 10391.7 10973.6 8112.26 9724.3 10246 282.103 646.71 7891.14 
-67235.5 -17286.4 -32896.5 -30232.1 -40736.8 -46878.2 -55472.4 -56140.3 -64313.9 -68373.8 -70464.2 -80391.9 -83392.2 -90661.7 -90910 -95832.9 -101537 -97601.2 -96980.5 -101031 -111233 -119826 -115500 -86129.3 -45693.2 -72353.1 -85164.9 -80225.2 -80811.6 -73049.6 -68897.2 -64143.1 -52699.1 -54939.9 -46059.4 -45403.2 -43874 -36718.6 -37742.6 -29832.8 -26528 -28726.8 -25454.1 -25433.5 -21680.7 -22456.8 -22034.4 -10941.4 -11146.9 -18581.6 
