-96183.5 -25703.7 -42524.5 -49886.1 -54474.3 -79749.7 -72245.4 -67296.3 -80805.9 -74717.9 -97884.6 -102037 -106731 -126436 -129203 -154253 -152265 -146406 -156322 -141634 -155903 -152797 -146564 -123902 -72139.3 -91954.3 -92622.1 -90965.6 -92538.7 -75059.6 -86233.3 -80401.8 -68937.5 -77778.5 -64207.8 -75395.1 -69133.9 -58692.9 -66766.8 -42322.5 -48412.2 -42541.5 -32143.1 -50771.3 -36451.7 -38972.6 -27272.8 -7016.97 -13120.2 -3709.29 
55535.3 12597.8 23205 29125 31297.3 48529.5 43702.4 41661.6 51513.9 47210.7 63260.6 65288.2 68860.1 82783.1 84449.5 102930 103708 103280 113094 104936 115183 110082 101138 80755.5 40856.8 50839.2 50069.6 49613.1 52797.4 42025 50821 46308.6 38262 43266.2 32026 38737 33358.1 26419.3 32757.9 17307.6 23275.2 20014.2 14213.1 27171.7 17457.5 20223.1 12545.9 -123.401 4633.89 -2386.87 
-12756 -5160.32 -6976.86 -6831.2 -8052.86 -9564.83 -9365.16 -8446.17 -8785.47 -8920.69 -9931.88 -10838.8 -10811.2 -11342.6 -11728.8 -11954.2 -10051.2 -6743.58 -4240.62 -1175.4 -324.176 -1455.86 -3940.24 -6212.34 -7195.13 -11075.5 -12332.5 -12273.4 -11161.6 -9753.26 -9413.66 -9589.95 -9227.1 -10575.9 -11799.2 -13422.3 -14421.6 -14300.6 -14422.8 -12912.2 -11953.6 -11068 -9663.76 -10372.1 -9614.08 -9266.96 -8457.94 -6695.33 -6701.16 -6640.27 
119081 26148.5 49076.7 63017.4 66783.3 105305 93777.3 89363.2 111672 101153 137579 141373 149704 181665 184874 227383 230573 232248 257384 241460 266865 254734 232482 183472 89807.1 109782 106786 105311 113302 89055.7 109790 99080.7 80819.6 91384.2 63979.2 78120.3 64390.9 47882.7 62221.9 27035.5 41704.1 34874.1 22581.4 52170.3 30215.8 36760.7 19514.1 -8549.47 2413.18 -13918.5 
50006.5 13704.1 22869.6 27710.3 29751.6 43722 39386.5 36977.7 44533.5 40890.8 54018 55868.1 58810.3 70117.6 71255 85674.3 85140.4 83129.7 89677.4 81954.4 90054.6 86694.9 80946.4 65879.7 34635.6 44165 43949.8 43216.8 45054.9 35668.5 42496.9 38956.7 32665.8 37329.4 28853.9 34908 30805.8 24941.6 29811.2 16671.8 21042 18119.1 13098.4 23741.7 15849.2 17957 11557.9 852.146 4589.46 -1071.68 
-89033.5 -24861.9 -40404.4 -46733.4 -51555 -74082.7 -67945.7 -63507.1 -75272.6 -70470.9 -90767.3 -94909.7 -98915 -115853 -118432 -139800 -136860 -129706 -136106 -121185 -131841 -129043 -124555 -106338 -63007.7 -82186.2 -83656 -82555.7 -83516.5 -68074.2 -77276.8 -72427.7 -62519.5 -70893.4 -60370.9 -71065.2 -66710.7 -58236.9 -65431.1 -44358.5 -49086.6 -43614.5 -34119.5 -50364.7 -37869.4 -40132 -29799.7 -11757.4 -17070.2 -9047.13 
-68608.2 -14210.7 -29147.8 -41325.5 -41872.8 -68439.4 -59823.8 -58173.2 -74151.7 -65784.5 -92013.9 -92879.1 -99771.8 -123414 -124419 -156265 -161259 -167920 -190320 -181772 -200900 -186865 -162939 -119460 -44744.9 -52735.5 -48323.7 -48031.5 -57280.1 -41752.3 -58680.2 -50124.5 -37461.9 -43582.7 -20643.7 -29470.4 -17314.7 -5391.11 -16738.1 6333.79 -7523.57 -4025.87 1915.15 -19641.3 -4359.47 -11208.4 503.146 18135.9 9283.98 22268 
24732.5 8768.77 12850.6 14298 15726.2 20838.3 19206.1 17612.6 19907.1 18798.4 23441.1 24601.8 25519.4 29282.8 29720.9 33986.9 32201.6 28960.3 28892.3 24276 26149.5 26049.7 26315.3 23594.8 15057.3 20787.2 21606.3 21188.7 20806.2 16847.7 18607.8 17670.9 15667.3 18131.5 16513.7 19575 18999.5 17043 18493.6 13382.8 13999.1 12493.3 10051.6 13769.2 10922.5 11336.6 8842.61 4403.57 5511.21 3750.52 
-35180.1 -7008.51 -13651 -17515.3 -18499.8 -29862.6 -26205.2 -24702.9 -31378.6 -28112.5 -38970.6 -40128.9 -42598.8 -52255.5 -53412 -66255.3 -67533.2 -68408.1 -76553.3 -72549.3 -81037.1 -78308.6 -72364.1 -58116.3 -30230.3 -36033.7 -34906.2 -34106.4 -36155.4 -28729.2 -34931.7 -31749.6 -26142.1 -29121.9 -20674.5 -24542.6 -20132.5 -14818.3 -18844.4 -7843.04 -12025.9 -9970.6 -6095.87 -14896 -8285.67 -9896.48 -4749.65 3791.53 654.86 5430.6 
11286.3 3075.66 5425.15 7090.31 7331.14 11015.8 9766.76 9344.28 11438.1 10338.6 13991 14229.2 15204.9 18463 18634.2 22858.8 23133.5 23421.7 25868.7 24097.5 26403.8 24607.3 21755.1 16299 6528.08 8181.61 7780.44 7741.61 8824.06 6564.04 8791.67 7709.82 6035.26 7097.88 4284.13 5778.97 4309.83 2697.7 4231.37 973.63 2689.73 2089.36 1134.4 4104.93 1971.52 2888.07 1217.83 -1359.22 -162.773 -1923.85 
-119736 -28252 -49761.1 -60636.6 -65108.5 -99732.6 -88678.5 -82726.5 -102142 -92668.7 -125179 -129706 -136673 -165080 -168702 -205598 -206348 -203935 -223788 -208252 -231966 -226355 -213483 -176270 -97841.1 -120182 -118719 -116001 -119971 -96365.9 -113605 -104687 -88191.4 -98734.9 -76154.1 -89501.7 -78070.7 -62331.6 -73793.3 -39627.7 -50143.8 -42970.6 -29795.4 -56096.9 -36086.2 -40008.7 -24047.3 3085.85 -5782.52 7985.04 
-102179 -16823.4 -38535.4 -55069 -56527 -96601.7 -84753 -82773.5 -107355 -95588.1 -134203 -136187 -145666 -180225 -182800 -230289 -238419 -248357 -282072 -270353 -299193 -280617 -247424 -185321 -76840.3 -89768.5 -83735.9 -83309.3 -96140.5 -73025 -97422.1 -84935.3 -65361.2 -74095.9 -40589.9 -53091.5 -35789.6 -18416.2 -34984.4 -313.973 -19713.6 -14222.3 -4201.77 -35768.6 -12840 -21790.2 -4327.31 22600.8 9899.42 28426.9 
-61315.5 -10095.2 -23251.4 -33635.4 -34295.5 -58815.6 -51416.1 -50250.3 -65300.1 -57898.6 -81644.1 -82667.4 -88572.6 -109887 -111256 -140524 -145741 -152328 -173522 -166721 -184738 -172981 -151988 -113104 -45673.5 -53052.7 -49094.5 -48772 -56886.9 -42728.3 -57891.2 -50091.3 -38114.2 -43366.8 -22390.1 -29910.3 -18976.3 -8179.28 -18382.8 2876.62 -9345.34 -6102.94 -220.135 -19714 -5702.78 -11395.8 -733.436 15602.9 7734.97 19248.2 
-83283.7 -17419.3 -34146.8 -45266.7 -47559.6 -76278.8 -67920.7 -65466 -82382.7 -74522.3 -101834 -104172 -110653 -134703 -136799 -169159 -172502 -175534 -195570 -184271 -202938 -191614 -171902 -132306 -59815.6 -72765.2 -69944.4 -69425.3 -76793.9 -59478.8 -75605 -67307.1 -53696.1 -61111.9 -39709.7 -49956.5 -39252.6 -27268.4 -38577.6 -13383.8 -25501.4 -20848 -12599.9 -34822.5 -18547.3 -24303.3 -11635.9 8476.19 -144.555 12467.5 
-109306 -25418.2 -44798 -54151.5 -58389.4 -89580.1 -79663.2 -74114.1 -91610.2 -83172.8 -112327 -116626 -122721 -148154 -151662 -184693 -185209 -182573 -200172 -186210 -207739 -203693 -193338 -161051 -91572 -112306 -111198 -108563 -111596 -90146.4 -105385 -97495.1 -82556 -92099.3 -72121.1 -84118.3 -74037.3 -59802.5 -69899.9 -38793.6 -47769.5 -41167.9 -28884.1 -52411.2 -34325.9 -37380.1 -22941.5 1809.39 -5977.05 6162.45 
-56214.8 -12221.5 -23238.5 -30229.1 -31916.5 -50600.5 -45140.1 -43299.6 -54204.8 -49129 -66798.1 -68475.7 -72557.4 -88048.6 -89471.2 -110214 -111966 -113225 -125654 -117955 -129988 -123280 -111458 -86782.2 -40683 -49863.4 -48341.3 -47932 -52318.8 -40873 -51123.3 -45858.4 -37048.5 -42074 -28595.2 -35443 -28741.7 -20943.6 -28134.8 -11514 -19001.9 -15812.4 -10142.3 -24495.4 -13857.2 -17320.6 -8992.34 4352.3 -1115.01 6953.31 
68904.9 18399.3 30389.7 35631 38811.3 56835.1 51243 47518.7 57150.9 52614.3 69235.2 72156.3 75537.3 89765.9 91760.8 109772 108447 104419 111862 101685 112448 110596 106386 90176 52886.6 66957.9 67291.3 65888.4 66882.3 54230.3 62320.8 58130.9 49894.6 56175.5 46248.4 54137.6 49400.2 41634.4 47293.1 29440.3 33779.4 29580.6 22070.2 35448.6 25137.9 26778 18360.1 3747.81 8053.73 1313.43 
-39922.4 -11220.8 -17590.3 -19043.5 -21668.5 -30386.8 -28206 -25906.9 -30231.4 -28763.6 -36221.2 -38491.7 -39610.7 -45596 -47067.8 -54408.7 -52185.7 -47305.8 -47881.9 -41179.3 -44787.7 -45964.2 -47588 -44274.6 -31342.6 -41034.8 -42501.6 -41785 -40708.5 -34235 -36827.4 -35408.5 -31587 -35292.9 -32744.1 -37251.3 -36556 -33424.1 -35637.3 -26948.4 -27336.3 -24727.4 -20038.6 -25890 -21048.4 -20998.6 -16887.9 -9188.75 -10756.4 -8278.22 
88030.1 19332.3 34757.3 42139.3 45250.3 70635.3 62157.5 57438.5 71850.6 64612.2 88510.5 91916.2 96889.6 117953 120969 148393 149497 148298 164110 154085 173307 171021 163045 136523 79006.4 95388 94004.4 91350.6 93580.9 75776.4 88445.2 81895 69419.8 76892.8 59809.1 69014.9 60087.3 47791 55757.2 29553.6 36874.5 31522.9 21303.9 40606.2 25671.4 27764.6 15914.1 -4524.17 1717.42 -8206.77 
242234 54293.5 99842 126100 133949 209544 186011 175756 219161 198153 269708 277782 293887 356792 363642 446625 451800 453011 501427 470005 521579 501807 463043 371039 190095 231941 226557 222416 235880 186820 226910 206290 170239 191576 138572 166532 139618 106039 133102 61660.1 88766.8 74658 48992.9 107046 63552.1 74892.1 40605.3 -15999.8 4840.32 -26746.2 
102623 23134.2 41781.3 51718 55208.5 85948.4 76070.5 71173.9 88687.8 80057.2 109079 112754 119062 144565 147674 181066 182655 182053 201253 188561 210397 204666 191686 156751 85076.1 103512 101633 99285.9 103492 82795.9 98619 90447.1 75643.7 84564.8 63516 74893.8 64093 49941.4 60349.6 30145.7 40189.1 34102.8 22806.3 46307 28451.6 32160.6 18018.1 -5779.38 2293.05 -10180.4 
-159809 -34303.7 -65219 -84290.5 -88946.3 -141241 -125165 -119125 -149579 -134911 -184657 -189564 -201068 -244977 -249369 -307808 -312897 -316395 -352059 -331502 -367319 -350895 -320053 -252264 -123267 -149448 -144783 -142522 -153636 -120611 -149298 -134573 -109547 -123596 -85386.9 -104148 -84687.2 -61673.9 -81127.9 -32819.3 -53134 -43978.7 -27395.8 -67833.9 -37847.5 -46752.8 -23293.4 14853.2 -111.912 22311.1 
-58451.4 -12626.8 -23789.2 -30488.6 -32232.1 -51048.5 -45210 -42886.5 -53811.8 -48517.4 -66382.6 -68221.8 -72292.5 -88056.8 -89698.8 -110633 -112330 -113325 -126009 -118577 -131595 -126148 -115631 -91789.1 -45832.9 -55595.6 -54032.5 -53130.6 -56896.5 -44891 -55121.9 -49884.1 -40863.8 -45987.5 -32381.7 -39160.2 -32217 -23851.7 -30734.9 -13128.3 -20221.8 -16838.1 -10678.2 -25188.3 -14347.4 -17355.3 -8860.78 5038.19 -257.963 7743.08 
6624.1 196.663 2233.94 4787.81 4214.69 8579.06 6936.51 7083.7 10003.9 8265.14 12898.6 12542.5 13972.9 18400.4 18404.5 24582.2 26575.4 29692.6 35416.1 35274.2 39432.6 35913.5 29713 19785.7 4435.24 3835.87 2262.87 2275.03 4774.47 2533.17 6125.29 4372.6 2114.74 2602.1 -2574.57 -1664.28 -4631.82 -6932.31 -4736.18 -8424.11 -5127.78 -5334.94 -5703.04 -1851.77 -4470.13 -2889 -4763.57 -7257.45 -5495.26 -8060.47 
126529 28315 51997.8 65422.2 69722.2 109011 97047.1 91788.9 114329 103641 140634 144984 153197 185583 189208 232002 234437 234572 259116 242454 268716 258623 238956 191923 98974.6 121181 118691 116670 123494 98078.6 118615 108009 89324.8 100494 73439 88079.9 74514.8 57367.6 71399.5 34512.9 48321.1 40918.6 27449.5 57433.4 34905.1 40688.8 22902 -6519.74 4232.49 -12005.5 
-115245 -28816.9 -49304.5 -59211.8 -63899.1 -96008.5 -85871.7 -79978 -97646.3 -89143.3 -119130 -123689 -130039 -156024 -159366 -192782 -192305 -188217 -204646 -188761 -209566 -204825 -194302 -161689 -91137.9 -113416 -112756 -110271 -113319 -91190 -106595 -98583.4 -83548.3 -93874.9 -74121.2 -87160.3 -77373.2 -63120.8 -73598.9 -41990.4 -51090.2 -44160.6 -31623.7 -55861.7 -37433.7 -40967.8 -26132.2 -744.433 -8822.45 3709.56 
-11000.8 -2568.95 -4383.81 -4939.62 -5418.84 -8109.75 -7110.54 -6353.47 -7821.34 -7063.02 -9577.78 -10082.6 -10556.8 -12796.4 -13297.4 -16107.5 -15995 -15411.2 -16757.7 -15486.3 -17618.9 -18036 -18074.7 -16111.5 -10733.8 -13011.2 -13026.9 -12617.8 -12487.4 -10424.4 -11648.8 -11085.3 -9736.85 -10652.5 -9117.32 -10189.3 -9351.98 -7920.03 -8600.42 -5484.78 -5904.35 -5189.2 -3796.15 -5782.52 -4115.94 -4054.01 -2722.84 -276.354 -807.488 132.145 
51324.5 10836.6 20694.3 26730.9 28185 44946.9 39694.7 37664.7 47439.4 42662.9 58647.6 60232.4 63921.5 78070.1 79524.4 98334.1 100056 101272 112944 106607 118467 113539 103922 82302 40875.9 49260.2 47675.8 46782.5 50196.8 39475.1 48677.5 43938.1 35849 40314.7 27937.8 33846.9 27476.5 19926.8 26071.9 10343.4 16797.3 13849 8446.38 21444.8 11796.1 14534.4 6990.83 -5333.95 -575.563 -7745.08 
-58733.3 -14850.8 -24664.5 -28150.2 -31095.8 -45839.6 -41319.8 -37936.2 -45810.1 -42281.3 -55670.6 -58474.9 -60965 -72370.8 -74456.9 -88891 -87577.1 -83519.2 -89160.1 -80956.7 -90124.6 -90444.5 -89249.7 -78221.1 -49782.1 -62379.6 -62968.9 -61444.8 -61266.9 -50533.2 -56618.9 -53424.8 -46502.3 -51718.7 -44188.8 -50529.3 -46999.9 -40507.7 -44678.9 -29460.8 -32088.3 -28380.3 -21516.2 -32221.8 -23747 -24351.6 -17424 -4959.97 -8130.93 -3046.36 
